0.07397
-0.01833
0.02642
0.03279
-0.03151
0.07579
0.02413
0.07025
0.06966
0.02600
-0.05054
-0.01949
-0.04887
-0.09616
-0.03230
-0.06081
-0.04020
-0.06242
0.01198
0.01954
-0.01469
-0.03808
-0.06514
-0.05019
-0.00191
-0.02924
0.03141
-0.18394
-0.27186
0.04338
0.05628
0.07728
-0.19701
-0.21621
0.14751
-0.02402
0.00023
-0.21126
0.00820
0.17980
0.07071
-0.34409
-0.14723
0.14350
-0.21164
-0.05610
-0.20610
0.01560
0.13611
0.10404
-0.30987
-0.17094
0.11606
-0.21730
-0.04456
-0.04801
0.00915
-0.02368
-0.02517
-0.04607
0.00989
0.00356
0.03304
0.03972
-0.04921
0.00728
-0.01081
-0.00752
0.03105
0.04945
-0.00986
-0.03229
-0.00784
-0.03514
-0.01919
-0.03061
-0.03789
-0.02144
-0.01422
-0.04136
-0.04526
-0.00196
-0.17060
0.04301
0.05665
0.05841
0.05972
0.28451
0.28930
0.16890
-0.10032
-0.21900
-0.13634
-0.10404
-0.15862
-0.14677
0.02702
0.04993
-0.07174
-0.16852
-0.22020
-0.08950
-0.18019
-0.26866
-0.22902
0.01519
-0.15167
-0.13106
0.00534
0.01259
0.02498
-0.02467
-0.04201
0.00543
-0.00943
-0.00628
0.01845
-0.03451
0.02451
-0.01514
-0.00891
-0.02378
-0.02693
0.01892
-0.04226
-0.01344
-0.00226
-0.03083
-0.01910
-0.04657
0.04012
-0.02652
0.04417
-0.04828
0.00374
-0.11447
0.00129
0.21144
-0.18206
-0.15295
0.07594
-0.07318
-0.06997
0.05253
-0.07090
0.09863
0.21957
-0.19966
-0.11728
0.16647
-0.07920
-0.12408
0.07479
-0.10608
0.04206
0.25837
-0.21334
-0.10659
0.10812
-0.15403
-0.15329
0.03702
-0.23079
-0.26662
-0.26085
-0.35213
-0.24300
-0.21909
-0.17944
-0.12597
-0.06809
0.03345
0.03244
0.05279
-0.04344
0.16364
0.25503
0.04424
0.24990
0.29325
-0.12588
-0.08728
-0.10698
-0.20967
-0.00503
-0.01291
-0.09738
-0.05495
0.06051
-0.02395
0.07055
-0.14583
-0.31060
-0.32228
-0.33292
-0.06011
-0.24993
-0.08836
-0.02812
0.26424
-0.11790
-0.23420
-0.10043
-0.17068
-0.22537
-0.22745
-0.19185
0.18966
0.59316
0.09332
0.14549
0.45381
0.15163
0.00665
0.05574
-0.02029
-0.03439
0.04032
-0.01713
-0.04128
0.00079
-0.02638
0.04980
0.05641
-0.04508
-0.02206
-0.02426
0.01839
0.04525
-0.00544
-0.00771
-0.03684
-0.01474
-0.02428
0.01295
-0.02135
0.02673
0.02086
0.04463
-0.01767
0.03209
0.03539
-0.04236
-0.01797
-0.08913
-0.09057
0.12659
0.09781
-0.01013
0.00777
0.04839
0.03970
-0.17676
-0.23836
-0.20147
-0.11895
-0.17897
-0.27346
-0.30183
-0.26271
-0.24241
0.11049
0.16142
0.17021
0.19356
0.00690
0.04265
-0.09664
-0.07061
-0.09683
-0.06879
-0.03909
-0.07547
-0.12680
-0.06765
-0.11254
0.12334
0.09160
0.07596
-0.06962
-0.10019
0.00051
-0.05183
-0.13394
-0.13421
0.12610
0.07491
0.06103
-0.03873
-0.01000
-0.04991
-0.10731
-0.10070
-0.12064
0.05654
0.11263
0.05633
-0.04927
-0.00519
-0.02910
-0.02414
-0.03336
-0.06317
-0.02271
-0.03761
0.00142
0.04268
0.04777
-0.04258
0.00235
0.00062
0.00802
0.01842
0.01019
-0.01898
0.03824
0.04871
0.05367
0.02863
-0.02292
0.05037
0.02248
-0.03665
0.03506
0.08345
0.09586
-0.05958
-0.40279
-0.30586
-0.30061
-0.17892
0.02805
0.02790
0.17781
0.31945
-0.04160
-0.20398
-0.01927
-0.23626
-0.11585
0.01012
-0.01553
0.44920
0.66820
0.23081
-0.01607
0.24539
0.03963
-0.01425
0.13836
0.00135
-0.21673
-0.13028
1.08110
-0.08956
2.15072
-0.69089
-1.06272
-0.53876
0.01924
-0.17964
-0.60217
-0.18585
0.57665
2.27832
-1.63665
-0.23292
-0.21197
-0.12570
-0.45653
-1.05292
-0.31642
0.78153
2.37981
-1.30247
0.19092
0.38269
-0.15191
0.04918
-0.31298
-0.15870
0.03733
-0.34421
-0.27170
0.27956
0.05955
0.03766
0.03164
-0.28113
-0.21620
0.02022
-0.34573
-0.31954
0.35243
0.03974
0.03900
-0.06307
-0.23708
-0.21365
0.02477
-0.23437
-0.24585
0.19386
0.02859
-0.03293
0.09177
0.07673
-0.09504
0.07436
0.05467
-0.17584
0.11111
0.02922
-0.11536
0.07070
0.02857
-0.19404
0.09361
0.07496
-0.20869
0.00694
0.06604
-0.10817
0.15844
0.11334
-0.18950
0.08972
0.12463
-0.13573
0.10754
0.05342
-0.13770
0.21456
0.02847
-0.18630
0.19502
-0.04806
-0.14892
0.13383
-0.10551
-0.16661
0.18712
-0.08945
-0.17783
0.15742
-0.14981
-0.22068
0.06365
-0.10499
-0.12239
0.21026
0.01310
-0.20708
0.12388
-0.14003
-0.18697
0.14960
-0.07305
-0.12539
-0.09067
-0.32702
-0.17934
-0.36140
-0.24355
0.00919
-0.17743
0.10196
0.36338
-0.09494
-0.25255
-0.06711
-0.28948
-0.15160
0.15386
-0.07467
0.27761
0.52738
-0.12706
-0.21791
-0.21159
-0.28045
-0.22072
-0.03437
-0.05617
0.12599
0.28686
0.03057
0.00032
0.00071
-0.03708
-0.01385
-0.00146
0.00889
-0.00203
0.04658
0.00401
-0.00285
0.00802
-0.04713
0.03049
-0.03415
-0.03452
-0.00891
0.02754
-0.00634
-0.01749
0.01060
0.01438
-0.01408
-0.01990
-0.04440
-0.03747
-0.04803
0.05338
0.09462
0.10237
0.00435
0.07414
0.08908
-0.07997
-0.03515
0.02826
0.07877
0.04014
0.09884
-0.04312
0.08111
0.06146
0.01785
-0.01217
0.04448
-0.02408
-0.07214
-0.04761
-0.09569
-0.14630
-0.12299
-0.15595
-0.15143
-0.05838
0.14983
-0.96690
0.57935
-0.04628
-1.74384
0.51567
0.77820
0.53305
0.33401
0.32001
-0.77093
0.68262
0.01002
-1.66239
0.58993
0.44154
0.24737
0.02572
0.31293
-0.30766
0.58192
-0.12619
-1.40744
0.55832
0.07933
0.15565
0.09010
-0.20728
-0.16737
-0.19438
-0.13677
-0.23408
-0.20955
-0.22881
-0.22981
-0.17210
0.00923
-0.05092
-0.05902
-0.02375
0.05890
-0.03166
-0.00861
0.07132
0.02654
0.05538
0.02490
0.06804
0.06123
0.07174
0.10925
0.06754
0.08884
0.09220
0.10608
0.09117
-0.02765
0.07196
-0.00548
-0.10530
-0.05600
-0.07155
-0.00013
-0.08692
-0.12685
-0.17473
-0.09324
-0.16899
-0.17975
-0.12274
-0.04563
-0.08536
0.02023
-0.00736
-0.05303
0.05610
-0.06250
-0.04368
0.03533
0.08735
0.07847
-0.19384
-0.38558
-0.43231
-0.34624
-0.07023
-0.24019
0.03087
0.34287
0.04792
-0.23275
-0.26220
-0.37766
-0.18987
0.24112
-0.03641
0.05379
0.55849
0.05495
-0.02860
0.15642
-0.06355
0.37496
1.03176
0.55631
0.53111
1.10567
0.58741
0.06220
0.07336
0.07846
-0.12192
-0.11587
-0.12203
-0.05853
-0.12455
-0.11068
-0.03132
0.03821
0.04120
-0.06762
-0.07975
-0.10327
-0.08505
-0.07588
-0.11709
0.00144
0.06227
0.05155
-0.06174
-0.10407
-0.10389
-0.06102
-0.01046
-0.01758
0.11995
0.29126
0.29636
-0.14718
-0.07140
-0.05625
-0.21732
-0.29708
-0.30445
0.07229
0.27518
0.29325
-0.09712
-0.11917
-0.04679
-0.13381
-0.27548
-0.22562
0.08022
0.17968
0.18836
-0.11766
-0.13812
-0.03742
-0.13115
-0.20908
-0.16504
0.12794
0.44510
0.24997
1.16241
-0.49979
0.00953
0.26195
0.03781
0.34797
-0.25192
-0.44520
-0.02909
0.17104
-1.96673
-0.77799
-0.14065
-0.61961
0.11483
0.72261
0.77221
0.54891
0.90831
-0.96761
-0.39693
0.34152
-0.07540
0.03494
0.29973
0.14807
0.07042
-0.08529
-0.25405
-0.25793
-0.00590
-0.15850
-0.12963
0.25301
0.06928
0.07106
0.01117
-0.21253
-0.17108
0.00378
-0.06568
-0.05613
0.13697
-0.04091
-0.10011
-0.13450
-0.25771
-0.29982
-0.10545
-0.19723
-0.14352
-0.06250
0.02516
-0.06152
0.01583
-0.02827
-0.00670
-0.02434
-0.07258
-0.09118
0.00274
0.00379
-0.02374
-0.02527
0.04430
-0.02993
-0.02418
-0.03459
-0.04164
0.06441
0.06479
0.03610
0.06852
0.09821
0.11038
-0.04290
0.08117
0.04439
0.05982
0.05883
0.15655
-0.02962
-0.17756
0.08443
0.11537
-0.03369
-0.00336
-0.05844
-0.02760
-0.03943
-0.06016
-0.20315
-0.04959
0.01500
-0.13534
-0.09848
-0.26603
-0.24860
-0.21782
-0.19050
-0.36900
-0.23573
-0.04527
-0.15452
-0.20812
0.04574
-0.19507
-0.22479
0.12932
-0.13022
-0.17048
0.19568
0.09939
-0.05142
-0.02017
-0.26961
-0.23156
-0.02196
-0.23169
-0.20697
0.15818
0.00747
-0.07743
0.13931
-0.08029
-0.10775
0.21300
-0.03762
-0.07455
0.27122
0.15307
0.06768
-0.05797
-0.09193
-0.05268
-0.07024
-0.06240
-0.12419
0.11896
0.10757
0.10628
-0.09043
-0.03020
-0.05958
-0.13093
-0.12200
-0.14365
0.07972
0.12395
0.09135
-0.05940
-0.06400
-0.07585
-0.04814
-0.11542
-0.09972
0.10673
0.02149
0.06774
0.40524
-1.21262
-0.49547
0.01022
1.42660
0.16572
-0.02296
1.41521
-0.46212
0.36950
-1.09300
0.05933
-0.99851
0.69716
0.18634
-0.75565
0.81582
-0.18642
0.56253
-1.14440
0.13700
-0.93031
0.47368
0.29638
-0.58565
0.85522
0.14275
-0.46970
-1.00048
-0.75475
-0.47402
0.32984
-0.39543
0.04819
-0.10779
0.01540
0.45294
0.75611
0.49645
0.71360
2.31108
0.91257
0.51443
0.66675
0.44264
0.37433
-0.29323
0.08294
-0.69681
-0.59130
-0.74647
-0.44005
-1.42008
-0.71969
-0.36342
-0.28258
-0.13459
0.03206
-0.04955
-0.21153
-0.10417
-0.16594
-0.31534
-0.05013
-0.04837
-0.03387
0.40045
0.25161
-0.04161
0.24802
0.06554
-0.10222
-0.25670
-0.23134
-0.10380
0.20801
0.09752
-0.11787
0.02031
-0.03929
-0.13683
-0.38240
-0.09449
-0.22954
-0.27532
-0.21966
-0.27723
-0.11133
-0.23517
-0.17377
-0.16466
0.21192
0.05189
-0.02020
0.09011
0.03400
-0.08452
-0.11951
-0.14143
-0.16138
0.29944
0.11471
0.02202
0.31381
0.19149
-0.00252
0.01757
-0.08837
0.16187
0.21687
0.16377
0.04448
0.02071
0.03566
-0.27652
-0.31177
-0.26124
0.11595
0.17199
0.10891
0.03303
-0.00852
-0.00660
-0.24035
-0.24508
-0.22780
0.07587
0.07024
0.09011
0.05658
-0.03369
0.02518
-0.18306
-0.15688
-0.20373
-0.01516
-0.23731
-0.15586
0.20006
-0.11307
-0.17481
0.01544
-0.24718
-0.03183
0.19547
-0.13511
-0.03300
0.34083
-0.02525
-0.14896
0.13489
-0.14865
-0.03537
0.00576
-0.25723
-0.18015
0.07411
-0.17367
-0.27133
-0.07154
-0.27939
-0.13255
-0.05598
-0.04859
-0.04536
-0.00509
0.04404
-0.03401
-0.04876
0.02759
-0.00904
-0.00265
0.04897
-0.02870
0.02346
-0.03287
0.00153
0.02350
-0.00772
0.01420
0.00139
0.03868
0.00443
-0.01842
0.00572
-0.03312
-0.03579
0.01979
-0.02863
-0.15549
-0.02864
-0.08145
-0.03253
0.28582
0.32255
0.07036
0.43217
0.50610
-0.21810
-0.22049
-0.24128
-0.36233
-0.09138
-0.08354
-0.05009
0.11816
0.22666
-0.16585
-0.28700
-0.32685
-0.38678
-0.34875
-0.20034
-0.12638
-0.08668
0.06232
0.13805
0.06655
0.11970
0.07881
0.12701
-0.03355
0.03683
0.02324
-0.11324
0.16546
0.13771
0.08995
0.08253
0.15049
-0.02816
-0.06143
0.05045
-0.09809
-0.08261
-0.13832
-0.06996
-0.20682
-0.11575
-0.11746
-0.20007
-0.17339
-0.07951
0.00026
0.04925
-0.00538
-0.02427
0.03870
-0.06799
-0.00307
0.04082
-0.06849
-0.04770
-0.00602
-0.06818
-0.02741
-0.00716
0.00057
-0.06227
0.01316
-0.00706
0.04679
0.06499
-0.01420
0.00362
0.01449
0.00419
-0.04227
-0.01906
0.04485
-0.03745
-0.06997
-0.06347
-0.03482
-0.05481
-0.00875
0.02336
0.04599
-0.02243
-0.03696
-0.01117
-0.05080
-0.02201
0.02138
0.00827
0.03810
0.02566
-0.02066
-0.00225
-0.05648
-0.01540
0.00054
0.02237
-0.05823
0.05794
0.04054
0.03732
0.27766
0.39219
0.02563
0.23021
0.21226
0.08543
-0.04619
-0.12540
0.10782
0.05109
0.05173
-0.15686
-0.06366
-0.10005
-0.21653
-0.15102
-0.29238
-0.08519
0.06472
-0.00199
-0.17248
0.02807
-0.04945
-0.16416
0.00944
-0.17595
-0.01524
-0.00220
-0.32631
-0.31493
0.12535
-0.26253
-0.50557
0.49997
0.24042
-0.07264
0.05232
-0.21509
-0.21781
0.14480
-0.17055
-0.32421
0.55695
0.32099
0.08373
0.00980
-0.33041
-0.25951
0.16620
-0.21395
-0.40737
0.49269
0.25514
-0.07015
-0.13094
-0.20277
0.09645
-0.14966
-0.18399
0.07927
-0.17286
-0.18879
0.08374
-0.13721
-0.17214
0.09875
-0.10928
-0.14089
0.04545
-0.15105
-0.09991
0.07651
-0.06360
-0.16112
0.05055
-0.14768
-0.16886
0.07077
-0.14134
-0.17321
0.04327
-0.08599
-0.07659
0.06634
-0.04745
-0.14245
0.08449
0.01991
-0.09341
0.03605
-0.05897
-0.12497
-0.06416
-0.08570
-0.23304
0.00027
-0.12322
-0.19449
-0.15260
0.07936
0.00657
0.00548
0.06738
-0.05075
0.09251
-0.02842
-0.00650
-0.02054
-0.03474
0.00675
-0.00856
-0.02797
0.01310
0.03474
-0.03762
0.02952
0.04279
0.01320
-0.01457
-0.04258
0.00479
0.01490
-0.03380
-0.02827
-0.00077
-0.04364
-0.04950
-0.04903
0.04882
0.01915
-0.04389
0.03021
-0.04211
-0.00271
-0.02564
-0.18295
-0.37750
-0.11543
-0.36604
-0.33466
-0.16319
-0.09720
-0.11063
0.00399
-0.13747
-0.27553
-0.00206
-0.19798
-0.06920
0.07200
0.00405
0.13993
0.22821
-0.08649
-0.15142
0.01435
0.06515
0.15450
0.35084
0.27414
0.34927
0.48792
0.30904
0.37173
-0.01349
0.22438
-0.06442
-0.32086
0.17884
-0.09179
-0.36851
-0.08185
0.00167
-0.14575
-0.06558
-0.19948
-0.45060
0.00551
-0.15256
-0.36308
0.07630
0.17725
-0.09239
0.07498
-0.08552
-0.21481
0.04828
-0.00402
-0.19579
0.00825
-0.08747
-0.08757
-0.26195
-0.48884
-0.04556
-0.24169
-0.16312
0.16515
0.28837
0.26873
0.26748
-0.11884
-0.33363
0.12773
-0.24652
-0.21274
0.14700
0.20456
0.25490
0.19017
-0.07610
-0.31731
0.08971
-0.13071
-0.23370
0.10835
0.04039
0.10188
0.19967
-0.15294
-0.20919
0.05642
-0.14096
-0.16116
-0.02642
-0.14964
-0.17221
-0.09706
-0.18757
-0.22674
-0.03658
-0.07418
-0.17350
-0.03382
-0.01050
-0.09569
-0.03842
0.02864
-0.07116
-0.04010
0.17456
0.10474
0.08299
-0.04728
-0.02834
-0.13100
-0.04125
0.02904
-0.04427
-0.20259
-0.07955
-0.14239
-0.13818
-0.06888
-0.18716
-0.02175
0.12277
-0.06850
-0.21807
-0.10179
-0.07222
0.02468
0.09357
0.03067
0.18137
0.31718
0.21926
0.01696
0.10769
0.11019
-0.10672
-0.34949
-0.31494
0.12619
-0.16744
-0.25790
-0.11548
-0.36082
-0.08792
0.12605
-0.07324
-0.14047
0.32035
0.15364
-0.13849
-0.10596
-0.30089
-0.15372
0.26340
0.07514
-0.14373
0.49774
0.38973
-0.03995
0.16132
-0.08320
-0.09633
0.06633
0.24251
-0.14044
-0.20160
-0.36401
-0.46406
-0.17488
-0.43633
-0.31536
0.40618
0.54986
0.13308
0.05429
-0.08662
-0.20785
-0.04914
-0.24025
-0.17459
0.32221
0.46640
0.00581
0.02931
-0.05918
-0.20886
-0.00127
-0.20776
-0.24700
0.02850
-0.02799
-0.02620
-0.05605
-0.04321
-0.01513
0.02039
0.02274
0.06250
-0.05393
-0.01856
-0.01615
0.02618
-0.00168
-0.04483
0.00870
-0.00634
0.00273
-0.02479
-0.01747
0.03580
-0.05203
-0.06923
-0.03733
0.04364
0.05480
0.07297
-0.24094
0.20371
-0.10251
-0.28328
0.16612
-0.18515
-0.09737
0.03268
-0.22191
-0.08519
0.28626
0.01356
-0.22456
0.21023
-0.25553
-0.23097
-0.07996
-0.29514
0.10569
0.49538
0.14897
-0.04988
0.27287
-0.11838
-0.18009
-0.00464
-0.28153
0.18112
0.08466
0.07403
-0.17799
-0.18178
-0.21253
-0.14414
-0.09058
-0.14391
0.08530
0.15222
0.08007
-0.18247
-0.16242
-0.15150
-0.07843
-0.13729
-0.11770
0.10617
0.10784
0.08727
-0.17859
-0.14445
-0.12184
-0.12573
-0.08971
-0.09330
0.04472
0.08509
0.06175
0.05929
0.08686
0.16369
-0.08772
-0.14003
-0.06141
-0.04534
-0.10305
-0.05615
0.02781
-0.03051
0.10506
-0.12920
-0.14076
-0.11637
-0.03408
0.01102
-0.04524
0.03810
0.04952
0.09726
-0.06440
-0.09311
-0.04874
-0.06168
0.01635
0.08121
-0.09427
-0.12942
-0.09216
-0.21943
-0.25431
-0.14068
-0.03948
0.08210
0.08858
-0.03634
-0.06785
-0.01996
-0.14211
-0.25656
-0.12905
0.08451
0.27862
0.27774
0.09604
0.19875
0.13720
-0.02840
-0.02365
0.02325
-0.02172
0.14612
-0.28211
0.10458
0.19153
-0.30732
0.08423
0.18111
-0.29235
0.03247
0.11995
-0.23137
0.01429
0.12298
-0.30824
0.01753
0.21232
-0.29341
0.02534
0.17255
-0.27611
0.13808
0.15906
-0.25219
0.12567
0.20884
-0.26358
-0.02737
0.01430
0.01220
-0.02183
-0.01217
-0.01236
0.03099
-0.02138
0.00586
-0.04852
0.02688
-0.01811
-0.03892
-0.02098
0.01544
-0.02118
-0.01721
0.00683
0.02517
0.02134
-0.04712
-0.02788
0.01870
-0.02787
-0.03865
-0.00647
0.00182
-0.19498
-0.30568
0.23666
-0.19606
-0.34646
0.24162
-0.11592
-0.29995
0.20379
-0.10217
-0.23825
0.21841
-0.09282
-0.29772
0.26325
-0.13978
-0.26030
0.23351
-0.11838
-0.25976
0.19650
-0.19147
-0.30636
0.16595
-0.16716
-0.23798
0.11233
0.41356
0.28780
0.31113
0.79206
-0.90264
-1.38570
0.51548
0.40619
-0.13315
0.11668
0.08171
0.34504
0.41986
-1.02281
-1.13002
0.18348
0.25110
0.08461
-0.44976
0.15094
0.64304
0.02849
-0.67599
-0.50334
-0.05112
0.37219
0.43512
0.36133
0.21969
-0.12068
0.65261
0.53269
0.11566
0.12530
0.21240
0.16546
0.13628
-0.10297
-0.45122
0.39198
0.07773
-0.25872
0.08582
-0.06208
-0.02324
0.14499
-0.14173
-0.48000
0.29679
-0.12152
-0.41487
0.10430
-0.11319
-0.20794
0.27066
0.15752
-0.27492
0.30065
-0.10991
-0.46850
0.47248
0.27351
-0.06802
-0.03410
-0.07149
-0.33425
-0.00593
-0.27821
-0.49621
0.22817
0.11304
-0.10135
-0.13486
-0.00809
-0.09433
-0.08262
-0.29742
-0.34908
0.14882
0.02738
-0.08408
0.17818
0.11542
0.27684
-0.06051
-0.69217
-0.19867
0.05834
-0.52744
-0.13984
0.16437
0.19393
0.30765
0.03001
-0.58448
-0.17776
0.07322
-0.37504
-0.16147
0.12971
0.16828
0.26405
0.12335
-0.39535
-0.11932
0.28454
-0.12803
0.00842
0.32368
0.03059
-0.66456
0.34177
0.15482
-0.21086
-0.10244
0.09504
0.15340
0.50844
0.42309
-0.15304
0.23740
0.18515
-0.09258
-0.41136
-0.23613
0.04999
0.05409
0.13405
-0.17125
-0.24069
-0.19753
-0.18342
-0.65180
-0.42054
-0.05362
-0.05941
0.03635
0.02364
-0.09678
-0.02768
0.00733
0.01088
0.00893
-0.00923
-0.07370
0.02158
-0.07934
-0.12804
-0.02257
-0.06431
-0.06933
-0.02160
-0.13138
0.04878
0.12578
0.06972
-0.02130
0.02052
-0.02618
0.05200
0.00153
-0.03909
0.03477
0.13504
0.13501
-0.02192
-0.00402
0.02732
-0.12960
-0.07025
-0.06988
-0.03934
0.07692
0.10745
-0.01951
-0.00822
0.01944
-0.14740
-0.02209
-0.09828
-0.01094
0.19591
0.12514
0.03013
0.07203
0.04794
-0.10963
-0.00225
-0.10500
0.01329
-0.05631
-0.04959
0.02197
-0.00668
0.00167
-0.07377
0.03447
0.00049
0.06610
-0.02904
-0.07958
-0.06129
-0.05099
0.02984
-0.00540
0.01091
0.02077
0.02790
-0.03734
-0.07543
-0.04535
-0.06814
0.02307
-0.03673
-0.04548
0.05032
-0.45936
0.10572
0.44303
-0.22390
0.40854
0.77717
0.09484
0.23381
0.39868
-0.23818
-0.24529
0.00110
-0.37481
-0.29546
-0.01358
-0.03837
-0.27176
-0.11650
0.09447
-0.05792
-0.05220
-0.16674
-0.35070
-0.19178
0.01747
-0.24469
-0.19193
-0.43478
-0.27655
-0.04294
-0.37109
-0.16506
-0.37729
0.00293
0.19923
-0.38771
-0.30093
-0.08921
0.11308
-0.23629
0.15789
-0.20948
0.14880
0.40639
-0.30148
-0.23498
-0.00881
0.00210
-0.03195
0.32960
-0.14759
0.44474
0.66774
-0.08922
-0.15726
1.04437
0.28069
0.12807
-0.60064
-0.79094
0.34753
-1.10248
-0.16765
-0.10691
1.20768
0.33633
0.30088
-0.29404
-0.59453
0.42440
-0.82142
0.03078
-0.53831
0.75531
0.01359
0.17429
-0.04894
-0.46766
0.54406
-0.40285
0.20487
0.41993
0.12530
-0.26948
0.38878
-0.02638
-0.25691
-0.08223
-0.25896
-0.25819
0.42749
0.06889
-0.26598
0.45253
0.02909
-0.28484
-0.13084
-0.34852
-0.24668
0.44605
0.11277
-0.20059
0.42029
-0.04182
-0.25201
-0.12282
-0.38903
-0.24678
-0.15841
-0.32736
0.16355
-0.44989
-0.37258
-0.11232
-0.01650
0.24153
0.21807
-0.31709
-0.42538
-0.01515
-0.53486
-0.39098
-0.31371
-0.18507
-0.01196
-0.09548
0.03285
-0.07870
0.25061
0.15225
0.23613
0.26699
0.47630
0.72622
0.55413
0.02038
-0.01585
0.00584
-0.03387
0.02253
-0.01908
0.01799
-0.03040
-0.00135
-0.05807
0.03952
-0.04119
-0.01947
-0.02629
0.01549
0.00520
-0.01376
0.03186
0.03949
-0.01466
0.01747
-0.02466
0.04183
0.01850
0.02916
-0.04245
-0.01344
0.02684
-0.04899
-0.02755
-0.04327
-0.01146
-0.00584
0.01623
-0.00445
0.00601
-0.01721
-0.03592
-0.04368
0.02299
0.03984
0.02757
-0.00555
-0.05877
0.03178
-0.00025
-0.03145
0.03409
0.03538
0.03410
-0.04390
-0.04911
-0.03676
0.00243
0.30151
0.04001
0.03303
0.09587
-0.29421
-0.19584
0.04935
-0.17525
-0.00616
0.31074
-0.02511
-0.01796
0.12960
-0.26150
-0.15638
0.03666
-0.22211
0.06571
0.34926
0.01428
-0.06165
0.06803
-0.30048
-0.15283
0.06813
-0.20335
0.01467
0.88046
2.42940
-0.08248
0.94329
1.25526
0.42418
-0.07512
-0.42377
-0.67337
-0.58234
-0.24438
-0.69674
-0.93176
-1.66394
-0.49896
0.08563
-0.65639
0.29613
-0.18931
0.35998
0.20496
-0.68724
-0.98971
0.33731
0.23860
0.02630
1.01174
-0.30141
0.13770
0.07204
0.08706
0.43280
0.29674
0.22158
0.23245
0.15807
-0.43239
-0.34448
-0.44914
-0.34705
-0.35060
-0.48112
-0.11221
-0.38700
-0.38305
0.12493
0.23736
0.05411
0.08073
0.07222
-0.03595
0.26763
0.03105
0.02061
-0.01650
-0.20824
0.02689
-0.09717
-0.17164
0.16901
-0.12408
-0.12059
0.17426
-0.04746
-0.19684
0.04987
-0.13117
-0.06745
0.10860
-0.12002
-0.08062
0.13479
-0.07044
-0.15172
-0.00885
-0.03939
-0.08223
0.14018
-0.13145
-0.07676
0.15760
-0.06487
-0.04732
-0.04175
-0.07450
-0.09855
-0.04420
-0.05948
-0.11878
-0.12920
-0.06376
-0.00612
-0.01663
0.02394
-0.03414
-0.04006
0.02281
-0.03789
-0.01365
0.04967
0.05334
0.05459
0.05198
0.00910
0.06374
0.04620
0.05587
0.04359
-0.35702
-0.00164
0.32264
-0.49397
0.01073
0.37307
-0.23071
0.13559
0.23393
-0.38835
-0.03126
0.25168
-0.45600
0.06370
0.37345
-0.29761
0.10766
0.19300
-0.38737
0.04511
0.29934
-0.54766
0.08621
0.40605
-0.33086
0.05006
0.17362
0.21397
0.21989
0.25337
-0.28464
-0.35429
-0.32974
-0.10923
-0.08526
-0.15855
0.22315
0.19156
0.25149
-0.24689
-0.29306
-0.22813
-0.10663
-0.03894
-0.10553
0.17170
0.17780
0.15343
-0.23997
-0.26889
-0.22139
-0.06355
-0.08555
-0.02673
-0.00610
-0.01548
-0.00851
0.03180
0.02842
0.00907
-0.00964
-0.00721
-0.03303
-0.01960
-0.02673
-0.00605
-0.03878
-0.01823
0.00459
-0.01470
-0.02704
-0.03316
0.02845
-0.00645
0.01336
0.03811
-0.02844
0.03558
-0.02074
-0.01588
-0.03074
-0.26666
-0.55661
-0.59676
-0.01995
0.58432
0.07311
0.04042
0.63695
0.22918
0.07738
-0.05300
-0.09382
-0.20296
0.23505
-0.05744
-0.26301
0.08116
-0.14162
0.51348
0.00049
0.19400
-0.31851
-0.36855
-0.37410
-0.35676
-0.60067
-0.57905
0.04315
0.27786
0.31746
-0.11934
-0.28269
-0.06843
-0.18231
-0.47100
0.03408
0.18924
0.50215
0.50104
0.00369
-0.08621
0.12316
-0.18673
-0.41069
0.18056
-0.04485
0.27376
0.29590
-0.23534
-0.30950
-0.10924
-0.19844
-0.43857
-0.07294
0.09203
0.04963
0.34672
-0.98858
0.13886
1.65719
0.06360
-0.62462
-0.24677
-0.15963
-0.43216
0.18803
-1.10455
-0.07496
1.46624
0.31847
-0.41425
-0.21983
0.25576
-0.52623
-0.48940
-0.51810
-0.04318
0.82102
0.55189
-0.14705
-0.40690
-0.04796
-0.09775
-0.04037
-0.08105
-0.04433
-0.09938
-0.10089
-0.11925
-0.04542
-0.01516
-0.09906
-0.00456
-0.10766
-0.05372
-0.06377
-0.06607
-0.10435
-0.08513
-0.07745
-0.10016
-0.08942
-0.04657
-0.02943
-0.06683
-0.02897
-0.08787
-0.03533
0.10778
0.12483
0.04199
0.03333
0.22430
0.16764
-0.06611
-0.02153
0.06090
0.03273
0.16911
0.10270
0.04072
0.13478
0.10537
-0.07231
-0.09504
-0.01042
-0.13108
0.00754
-0.09877
-0.17772
-0.07941
-0.15413
-0.18467
-0.23305
-0.09773
-0.31315
-0.54734
-0.47149
0.12563
-0.02075
0.02057
0.29697
0.33691
0.16821
-0.40949
-0.51538
-0.49908
0.09623
-0.04389
0.01101
0.38218
0.44671
0.28485
-0.39921
-0.53244
-0.46243
-0.02766
-0.05307
-0.01329
0.29820
0.28858
0.23835
-0.39822
-0.17128
-0.14139
0.38969
0.85821
0.05633
0.40729
0.69912
0.13264
-0.07127
-0.08785
-0.10903
0.04757
0.20097
-0.39317
0.05571
0.04459
-0.21870
0.08981
-0.01505
0.31116
-0.38511
-0.34972
-0.29564
-0.51402
-0.51101
-0.33122
-0.33047
-0.35092
-0.31091
-0.48274
-0.30847
-0.49022
-0.30814
-0.46011
0.21361
-0.03769
0.28180
-0.29462
0.01352
0.55243
-0.36452
-0.40113
-0.34506
-0.07046
0.41564
0.91232
0.01948
0.61888
1.41668
0.12946
-0.20818
0.02727
-0.19488
-0.13743
-0.09167
0.02505
-0.00367
-0.12568
0.02133
-0.01742
-0.11847
-0.04339
-0.05379
-0.04094
0.06426
0.08516
-0.03057
0.06969
0.10094
-0.04458
-0.08121
-0.10101
-0.13780
-0.01911
0.02584
-0.03015
-0.00450
0.02645
-0.04960
-0.12317
-0.06405
-0.12177
-0.05812
-0.13164
-0.08995
-0.05469
-0.07366
-0.05568
-0.11550
-0.10463
-0.11665
-0.10936
-0.12816
-0.09579
-0.06432
-0.12255
-0.08846
-0.10755
-0.08025
-0.11243
-0.09884
-0.11619
-0.11379
-0.12318
-0.09805
-0.11559
-0.07112
0.24424
0.25387
0.10588
0.09854
0.10547
0.06118
-0.13789
-0.07035
-0.09651
0.01306
0.01385
-0.01368
-0.08816
-0.10658
-0.18703
-0.15841
-0.18487
-0.14206
0.11882
0.06366
-0.03557
0.00767
-0.08638
-0.05906
-0.07159
-0.13765
-0.03904
-0.22306
-0.24229
-0.28661
-0.82160
-0.17784
-0.68265
0.18772
-0.57537
-0.24171
-0.23669
0.26341
-0.09447
-0.34011
0.85286
-0.02745
0.11365
-0.23700
-0.24154
-0.10257
0.82695
0.06533
0.03972
1.81258
0.55554
0.02082
0.20338
-0.09502
-0.00123
-0.05445
0.02769
0.09747
0.14086
0.04847
0.06985
0.17139
0.16612
-0.10833
-0.05779
0.02856
-0.03942
-0.03428
0.00737
-0.08757
0.04028
-0.01354
-0.07203
-0.08134
0.04698
-0.09499
0.00481
0.07086
-0.11839
0.04266
0.01609
-0.12404
0.07562
0.16234
-0.34649
0.09792
0.37589
-0.07579
0.10274
0.09031
-0.05402
0.19390
0.25026
-0.34737
0.07512
0.28688
-0.14538
-0.03072
-0.05765
-0.05128
-0.19917
-0.23902
-0.36845
-0.21794
-0.16529
-0.16090
-0.36318
-0.37965
-0.12127
-0.16622
-0.10255
-0.14250
-0.17602
-0.09799
-0.11140
-0.16271
-0.11374
-0.03280
-0.10217
0.00417
-0.08361
0.01000
0.08631
-0.00211
0.03399
0.12459
-0.01019
-0.01270
0.03264
-0.04834
0.06885
0.12571
-0.05052
0.04212
0.16581
-0.03333
-0.12669
-0.11547
-0.09560
-0.11300
-0.07317
0.13004
0.13525
0.15352
-0.13000
-0.11586
-0.10481
-0.08977
-0.07890
-0.11939
0.14078
0.08209
0.13914
-0.18398
-0.17858
-0.18230
-0.22467
-0.24383
-0.21679
0.02973
-0.01917
0.02888
0.03996
0.01841
-0.03588
-0.05258
0.02363
-0.05054
-0.03665
-0.02705
-0.00601
0.04396
-0.00421
0.04174
-0.03669
-0.00154
-0.00457
0.02971
-0.04083
-0.00221
-0.03607
0.03373
0.00210
-0.03650
0.02078
-0.05177
-0.04636
0.00344
-0.02403
0.00621
0.00940
0.02092
-0.04871
-0.00317
-0.03681
-0.01159
-0.01267
-0.03854
-0.01009
0.01232
-0.04232
0.03098
-0.00861
-0.02888
0.03256
0.02460
0.00197
0.00553
-0.00931
0.01605
-0.03559
-0.03840
-0.02878
-0.03295
-0.00471
0.04274
0.01474
0.01333
-0.00518
-0.04543
0.04460
-0.03598
-0.04097
-0.01553
0.00074
-0.02582
-0.00421
-0.01350
-0.04568
0.01839
-0.03040
0.00814
-0.00615
0.04092
-0.01590
-0.04460
0.02604
-0.01381
-0.04427
0.03571
0.01037
-0.00711
-0.03693
0.11572
0.07940
0.12136
-0.13875
-0.14494
-0.19615
-0.14207
-0.23267
-0.16712
0.03594
-0.05907
-0.03784
-0.18923
-0.24225
-0.15590
-0.20062
-0.25404
-0.15944
-0.00442
0.04378
0.05646
-0.09522
-0.14109
-0.08039
-0.12597
-0.10603
-0.16354
0.00430
0.28309
-0.07209
0.06851
0.22242
0.17104
-0.13261
-0.16514
0.12514
0.05093
0.25522
-0.01953
-0.06536
0.05799
0.04505
-0.21843
-0.28945
0.06936
-0.11012
-0.01294
-0.18611
-0.22475
-0.20066
-0.23311
-0.29811
-0.38165
-0.15256
0.37271
0.76223
0.60983
0.05366
0.37082
0.34988
-0.29595
-0.33494
0.01781
-0.31979
-0.35717
-0.28414
-0.47736
-0.52631
-0.41784
-0.29644
-0.59890
-0.13923
0.14324
-0.03994
0.04756
-0.00283
-0.12347
-0.08441
0.15812
-0.00628
0.25970
-0.13616
-0.07202
-0.05751
-0.08283
-0.10975
-0.11796
-0.07954
-0.05741
-0.06830
0.01626
0.03123
0.03437
0.05447
0.04661
0.02260
0.01196
-0.01516
-0.00667
0.01782
-0.00377
0.00301
0.05396
0.07077
0.02039
0.06868
-0.02038
0.00855
0.01309
0.16806
-0.10203
-0.09679
0.05914
-0.19613
0.00071
-0.07453
-0.05483
-0.12501
0.11604
-0.09405
-0.08090
-0.05158
-0.19646
-0.09553
-0.08347
-0.13789
-0.13399
0.06850
-0.08581
-0.16859
0.01261
-0.17201
-0.10610
-0.04778
-0.03025
0.30064
-0.12793
-0.22812
0.28943
-0.23020
-0.28088
0.29086
-0.00734
-0.13483
0.28030
-0.16419
-0.16333
0.20741
-0.21341
-0.19955
0.27869
-0.06320
-0.12492
0.35555
-0.11623
-0.16806
0.25884
-0.17489
-0.25334
0.28076
-0.05680
-0.10932
-0.25388
-0.12522
-0.07091
-0.09607
0.00503
-0.12588
-0.13281
-0.21207
-0.38300
-0.05750
-0.02069
-0.00005
0.18085
0.30220
0.07704
0.14396
0.09303
-0.17259
-0.20330
-0.13051
-0.07373
0.10541
0.22752
0.03705
0.09891
0.05769
-0.18545
0.02961
0.06801
0.07666
0.05386
0.01861
0.09225
0.01241
0.03924
0.06652
-0.00979
-0.08955
-0.07561
-0.06191
-0.10479
-0.08383
-0.08802
-0.04596
-0.07371
-0.03497
0.01570
-0.02974
0.01380
-0.05427
-0.03976
0.03825
-0.01635
0.01631
-0.12581
0.12059
-0.06591
-0.33904
-0.15313
-0.07118
-0.08516
-0.32090
0.00023
-0.11741
0.38648
0.16383
-0.44476
0.04572
0.02285
-0.35458
-0.51164
-0.13533
0.20443
0.76381
0.48840
-0.16241
0.44021
0.34838
-0.23692
-0.20801
0.10340
-0.20572
0.24478
0.37773
-0.30129
0.07217
0.51357
-0.12203
-0.07787
-0.02895
-0.25573
-0.01865
-0.00819
-0.22229
-0.17979
0.08313
0.05155
-0.21865
-0.22853
-0.14271
-0.18221
-0.25201
-0.01704
-0.13262
-0.04210
0.20438
-0.05107
-0.12804
0.15394
0.23816
0.11145
-0.01896
0.06754
0.05465
-0.13233
-0.03929
-0.00613
0.01978
0.01524
-0.11728
-0.01582
-0.01350
-0.10637
-0.13381
-0.12670
-0.07420
0.07618
0.13497
-0.08468
0.02405
0.07373
-0.09180
-0.04487
-0.06457
-0.10265
0.11718
0.30363
0.28905
0.42590
0.49572
0.61862
0.01779
0.02902
0.19431
-0.20444
-0.12514
0.07792
-0.16047
-0.01467
0.27683
-0.37440
-0.31488
0.03437
-0.11640
0.06318
0.33901
-0.30467
-0.11527
0.37699
-0.52217
-0.38862
0.05677
-0.25944
0.07205
0.42495
-0.27194
-0.54972
0.12995
-0.07975
-0.29934
-0.10518
-0.39063
-0.01266
0.29903
-0.37682
-0.44206
0.08089
-0.20397
-0.46019
-0.24038
-0.01087
0.44677
0.56245
0.08247
-0.00004
0.47337
0.06360
-0.11234
0.08301
0.35202
0.13835
-0.16487
0.41335
0.12763
-0.29413
0.17564
0.15067
0.07241
0.17715
-0.08433
-0.15530
0.22165
-0.08299
-0.27897
0.06926
0.05712
0.13031
-0.09435
-0.22391
-0.11999
-0.20666
-0.45211
-0.36657
-0.27365
-0.38411
-0.08679
-0.06934
-0.09830
0.06627
-0.05757
-0.05368
0.00858
-0.06353
-0.08645
0.05801
-0.08090
-0.07991
0.08241
-0.03239
-0.04712
0.01427
-0.07974
-0.09001
0.00974
0.01608
-0.01916
0.08881
-0.00090
-0.08731
0.03559
-0.00031
-0.02261
-0.01609
0.02768
-0.03112
-0.00590
0.03236
0.01590
0.03671
-0.04016
-0.03999
-0.01126
-0.03242
-0.01119
0.02136
0.01380
0.02843
-0.02228
0.02528
-0.02058
-0.02233
0.00963
0.01874
-0.01800
-0.04244
0.02904
-0.02379
-0.02825
0.02091
0.03150
0.05233
0.06437
0.01939
-0.02587
0.06112
0.04366
-0.01278
-0.06931
-0.04143
0.02027
0.01912
0.01042
-0.05205
-0.02850
0.02009
-0.03859
-0.03571
-0.04721
0.04166
-0.01203
-0.08097
-0.03878
-0.00967
-0.03460
-0.07762
-0.04107
-0.06381
-0.02515
0.06840
0.15760
-0.12567
-0.10555
0.05663
-0.06473
-0.09003
-0.02782
-0.01160
0.00913
0.14517
-0.13049
-0.17185
-0.01063
-0.11409
-0.11677
-0.06298
0.01354
-0.03405
0.08613
-0.07665
-0.17258
-0.05623
-0.01911
-0.09986
-0.07472
0.14471
-0.16946
0.10624
0.36028
-0.80383
-0.04751
-0.38132
-0.26311
-0.15577
-0.09630
-0.49308
-0.05496
0.36032
-0.85135
0.01035
-0.21620
-0.06275
0.05711
-0.26440
-0.31148
-0.19229
0.35308
-0.60752
-0.06261
-0.14234
0.16844
0.06394
-0.20200
-0.15926
-0.14969
-0.19800
-0.20726
-0.24516
-0.22988
-0.28185
-0.19583
-0.04749
-0.03994
-0.03913
-0.02427
-0.00382
0.01530
0.00138
0.01022
-0.04980
0.08514
0.07984
0.02249
0.14261
0.08650
0.12579
0.10734
0.13639
0.12438
0.15300
0.18855
-0.09454
-0.03856
-0.09913
-0.21559
-0.10188
-0.20272
-0.12571
0.18754
0.23807
-0.04716
-0.01219
-0.04026
-0.23169
-0.12783
-0.20367
-0.19256
0.47364
0.57920
0.24259
0.22491
0.34956
0.03694
0.05541
-0.01599
-0.02587
0.09113
-0.11687
-0.04452
0.08140
-0.11288
0.00062
0.05135
-0.07631
-0.03052
0.06592
-0.11578
-0.01595
0.06644
-0.05975
-0.03767
0.09154
-0.04261
-0.05734
0.08748
-0.10422
-0.02350
0.02008
-0.06247
0.02511
0.04605
-0.03052
-0.01398
-0.08187
-0.14907
-0.02061
-0.35687
-0.36012
-0.01026
-0.18038
-0.02312
0.10225
-0.01133
-0.18683
-0.07982
-0.29170
-0.29487
-0.07541
-0.09625
-0.05647
0.10814
0.10013
-0.01652
0.07420
-0.11971
-0.09302
0.15776
-0.01913
0.13812
0.30896
