-0.01830
0.02034
0.10976
-0.09371
-0.18147
0.17548
0.00276
0.04335
0.08207
0.19708
-0.00919
0.07600
0.00156
0.00522
-0.14039
0.08083
0.00292
0.03180
-0.04023
-0.00443
0.00423
-0.00429
-0.02905
0.00462
-0.00681
0.07575
0.02658
-0.03930
-0.01777
0.07211
-0.01548
-0.20365
-0.10862
0.01826
-0.09015
-0.00110
0.00526
-0.00382
0.00047
0.10537
-0.07240
0.01524
0.06249
-0.09384
-0.04106
0.09757
-0.04130
-0.03411
-0.18074
-0.05210
0.03532
-0.17039
0.10200
-0.10908
-0.02044
-0.25096
-0.20152
0.02856
0.04147
-0.04626
0.13948
-0.08491
-0.11795
-0.00429
-0.03906
-0.09361
-0.03083
0.04366
0.07043
-0.01171
-0.13468
0.14101
0.20103
0.24021
0.10436
-0.08008
-0.10010
-0.04054
0.12869
-0.18643
-0.05956
-0.01886
-0.14305
0.04399
-0.06239
-0.05257
-0.25163
0.06844
-0.13615
0.51321
-0.01200
-0.06835
0.03157
-0.17442
0.04857
0.00281
0.10251
0.21646
0.02987
-0.11596
0.14875
0.12222
0.00147
0.04739
0.04745
0.04103
0.23214
0.02276
-0.19120
0.00985
-0.06078
0.15088
-0.13638
0.04183
0.12235
-0.00254
-0.03221
0.01045
-0.02119
-0.09098
0.19192
-0.02949
-0.03135
-0.04248
-0.01207
-0.02999
-0.03166
-0.00905
0.10297
-0.04810
0.01446
-0.00922
-0.00086
0.00087
-0.06655
-0.08475
-0.01677
-0.07762
0.05753
-0.04422
-0.03286
-0.11408
-0.05258
-0.05933
0.03888
0.05151
0.01478
-0.11174
-0.11481
0.04960
-0.02189
-0.15385
0.01404
-0.06866
0.04281
-0.07903
0.04661
-0.02537
-0.03201
-0.00730
-0.02029
0.08547
-0.06629
-0.03821
0.05920
-0.00516
-0.03150
-0.08878
-0.09085
0.22211
-0.02756
-0.09746
0.15488
-0.00554
0.06320
-0.03669
-0.11000
-0.04219
-0.02349
-0.11227
0.06094
0.03181
-0.00618
-0.03411
-0.01449
-0.01114
-0.03355
-0.00571
0.01060
0.05466
-0.21464
-0.00694
0.07202
0.10550
-0.18853
0.09827
0.12340
-0.09559
-0.00607
0.27711
0.04086
-0.03731
-0.05142
-0.02554
-0.01162
0.00154
0.02428
-0.00345
0.04776
-0.00354
-0.13376
-0.13845
-0.03428
0.11383
-0.04299
0.16906
-0.04036
-0.00822
-0.04379
-0.07049
-0.19093
0.09782
-0.11714
0.23341
-0.04289
-0.11623
-0.18984
-0.00941
-0.10568
0.06374
0.00629
0.14343
-0.12757
-0.01858
-0.12052
-0.02866
0.04985
0.01970
0.02660
0.05799
0.16703
-0.07350
-0.00010
0.03391
0.10266
-0.09798
-0.10719
0.17597
-0.01097
-0.08977
-0.11742
0.09012
0.01931
-0.00382
-0.00697
-0.02227
-0.05719
-0.16164
-0.05991
0.03595
-0.12115
0.04056
0.03348
0.07314
-0.09913
-0.02129
0.05602
-0.00466
-0.10016
0.02916
-0.19453
0.05034
0.19080
-0.01259
-0.07761
0.00649
-0.04964
0.01308
0.03397
-0.16411
0.06054
0.14101
0.09599
0.15576
0.01905
0.00774
-0.00383
0.08588
0.18323
0.04161
-0.08933
0.01943
0.00954
-0.15811
0.10444
0.03735
0.02886
-0.11918
-0.09925
-0.14712
0.03024
-0.10864
0.12031
0.03443
-0.05011
0.04297
0.02108
-0.16937
-0.00970
-0.07372
-0.14375
-0.09568
-0.01814
0.01040
0.02849
0.00163
0.04917
-0.17577
0.03040
-0.02336
0.04532
0.04047
-0.09301
0.00331
0.10989
0.16749
-0.05103
0.02572
-0.08027
0.11790
0.05863
0.02139
0.06525
-0.02882
-0.13301
-0.05126
0.31657
0.02432
0.00848
-0.14381
-0.04690
0.06452
-0.07036
-0.08173
0.10285
-0.08240
-0.01185
-0.02079
0.01758
0.16915
-0.05154
0.03353
-0.05924
0.13707
-0.05697
-0.18657
0.12423
0.01294
0.19306
0.06727
0.01845
0.03633
-0.13914
0.06730
-0.01832
-0.12300
0.00254
-0.10467
-0.06398
-0.08859
-0.00545
0.00491
0.09527
0.10027
0.16008
-0.07816
-0.03488
-0.02288
-0.04136
0.03088
0.12863
-0.03546
0.11618
0.00563
-0.12937
0.09125
-0.00367
-0.00844
0.05099
-0.00927
0.00845
0.02456
-0.06937
0.00599
0.04141
-0.03220
0.20864
0.00648
-0.04261
0.00301
-0.00476
-0.01481
-0.13919
-0.11535
-0.08215
-0.04264
0.01257
-0.00458
-0.00826
0.16426
0.05267
-0.06289
0.05499
0.10146
-0.00843
0.02093
0.16068
0.07387
0.04476
0.00802
0.00634
0.04850
-0.06071
0.04964
0.17758
-0.08522
0.02461
-0.05438
-0.03692
0.03067
-0.00449
-0.06717
-0.01779
-0.12791
-0.02796
0.06136
0.04369
-0.00154
-0.07813
-0.03189
0.14754
-0.02176
0.00860
0.12291
0.00875
0.08482
-0.01269
-0.04993
0.00005
-0.10059
0.02293
0.06085
-0.02297
0.05674
0.03810
-0.04729
-0.04224
-0.06507
-0.00901
0.03662
0.19746
0.10944
0.02363
0.18220
-0.00482
-0.00417
-0.01901
0.10380
0.13920
-0.17852
-0.00721
0.07605
-0.07487
-0.15816
-0.23628
-0.10546
0.07928
-0.08275
0.11768
-0.07856
0.10171
0.00317
-0.02161
0.02879
0.00582
0.01574
0.06761
0.08189
-0.10436
-0.02798
0.16142
0.18610
-0.01000
-0.01812
-0.08397
0.08333
-0.02268
0.17165
0.13155
0.01560
0.01301
-0.00609
-0.06205
-0.01897
0.05310
-0.02088
0.00512
-0.09409
-0.03426
0.15797
-0.03953
-0.04481
-0.00350
0.10426
-0.08007
-0.19843
0.11560
-0.04882
0.12023
0.04382
0.15129
-0.03772
-0.04860
0.14385
-0.00695
0.07906
0.05378
-0.04021
0.12244
0.00148
-0.01876
-0.15527
-0.14660
0.04334
-0.02802
0.05305
-0.16011
-0.05885
-0.01447
-0.18880
-0.06063
-0.11060
-0.03316
-0.12030
0.01675
-0.02230
-0.15882
0.06786
-0.03521
0.00245
0.04493
-0.21766
-0.00431
-0.06328
-0.12945
0.07520
0.17563
-0.12409
0.15109
-0.00379
0.00347
0.07340
0.08759
-0.16055
-0.06820
-0.08862
-0.03193
-0.03207
0.14625
-0.00410
-0.11681
-0.15785
0.05387
0.07896
-0.07544
0.08876
-0.08783
0.17151
0.01534
0.21508
0.13610
0.10922
-0.10060
0.05862
0.01086
-0.00221
-0.10451
0.11251
0.08038
-0.01211
0.00872
-0.07296
0.08169
0.00338
-0.06316
0.13072
-0.00537
-0.02623
-0.07139
-0.08428
-0.08350
0.00810
-0.14361
0.17020
-0.08572
-0.00059
-0.00406
-0.04465
-0.07068
0.13259
0.08705
0.05007
-0.00694
0.05802
-0.01607
0.00521
-0.13331
0.04837
-0.14526
0.00796
-0.06396
-0.05005
0.17025
-0.04094
-0.14548
-0.00369
-0.13136
0.14341
0.01332
0.05450
-0.10190
-0.03939
-0.07702
0.02179
-0.00124
0.03501
-0.05245
-0.09189
0.15327
0.15680
0.14024
0.02245
0.02841
-0.05923
-0.02332
-0.06946
-0.05554
-0.00783
0.07601
-0.03828
-0.01747
0.01755
-0.02337
0.09630
-0.00736
0.07493
0.01237
0.12946
-0.16679
0.00654
-0.02995
-0.00112
0.02770
-0.04925
0.04110
-0.07810
0.17535
-0.00474
0.10469
-0.16152
-0.03248
0.00210
0.07040
0.14359
-0.04354
0.17967
0.08884
0.02649
0.06067
0.00983
0.10310
0.17442
-0.01375
-0.07359
0.17143
-0.05340
0.06158
-0.07834
0.00717
0.10293
-0.14747
0.05502
0.00238
-0.04357
-0.06370
0.00597
-0.15516
-0.19773
-0.02737
0.02658
0.14996
-0.09763
0.17798
0.05523
0.17982
0.10044
-0.13562
-0.00023
0.00351
-0.09306
0.00959
-0.03363
-0.07636
-0.02804
-0.00377
0.04800
-0.06882
0.13903
-0.05716
-0.16616
-0.00391
0.08239
0.07724
0.01672
0.03825
0.22822
-0.04246
-0.00954
-0.08577
-0.09354
-0.01703
-0.16379
0.00772
0.05955
0.36366
0.03151
0.01905
-0.04606
0.20048
-0.05763
0.09105
-0.02587
0.02481
0.00494
0.08842
0.10191
-0.00457
0.01844
0.21265
0.03607
0.01795
-0.06728
-0.05863
0.01312
-0.00100
-0.09444
0.15033
-0.10493
0.15418
0.02057
0.15083
-0.00949
-0.06800
0.11088
-0.02159
0.00461
0.04845
0.05120
0.05481
0.10436
-0.12970
0.20210
-0.13286
0.12586
0.01504
-0.04916
-0.00390
-0.07306
0.14510
-0.00275
0.01427
-0.07192
-0.00606
0.05672
-0.03050
-0.05086
0.02261
-0.09195
0.05307
0.10875
0.31240
0.00420
-0.04766
-0.05821
0.11605
-0.01689
0.17347
0.01593
-0.09191
-0.18594
-0.00237
-0.08055
0.00621
0.15367
0.06786
-0.08447
0.00490
0.00182
-0.13739
0.01197
0.06025
0.21440
0.08916
-0.02896
0.04862
-0.04846
-0.13589
0.00026
-0.02099
0.00398
-0.07048
0.04280
-0.13308
0.01769
-0.04334
0.02929
-0.20710
-0.00069
-0.08443
-0.19218
-0.09058
-0.08537
0.07499
0.06564
0.01678
-0.05684
-0.03469
0.09600
0.13916
-0.05230
0.00872
0.10864
0.00215
0.01401
0.10695
0.21458
0.01391
-0.00433
0.12083
0.04011
-0.04070
0.01246
0.06455
-0.01522
0.02199
0.26075
0.05728
0.07524
0.02310
-0.00156
-0.06965
-0.04967
0.15432
-0.02388
0.11796
0.09791
-0.06654
-0.05556
-0.16842
-0.02528
-0.11535
0.15614
-0.00075
-0.00787
-0.03350
-0.07961
0.03158
0.13345
-0.10879
-0.17337
-0.00112
-0.06827
-0.12264
0.02032
-0.00554
-0.00710
0.08928
0.03476
0.11457
0.01038
0.02906
-0.21172
0.09302
0.30735
0.00915
0.06873
-0.00154
-0.05226
-0.09059
0.10536
0.05989
0.00303
0.18759
-0.08476
0.10337
0.11918
-0.06669
0.14692
-0.10449
-0.09399
-0.16953
0.04405
-0.07093
0.02857
-0.10355
-0.19109
0.06092
-0.01101
0.02503
-0.01807
-0.13853
-0.20060
0.08690
-0.07602
0.02331
-0.00486
-0.00272
0.14502
0.12189
0.08675
-0.18823
0.03036
0.14698
-0.16390
-0.15737
0.04772
0.06663
-0.01780
0.29931
0.08951
0.00088
0.08950
-0.10427
-0.01007
0.04806
-0.09147
-0.07231
0.06538
-0.09712
0.14203
-0.08403
0.08473
0.05835
-0.00364
-0.06863
0.04945
-0.22391
-0.01619
0.15627
-0.11633
-0.01953
0.05554
0.08831
-0.16704
-0.08832
0.06645
0.12166
0.06213
-0.08073
-0.16924
0.08012
0.09109
0.02445
-0.08341
0.13315
-0.00831
0.09098
-0.05000
-0.08933
-0.12347
0.07989
0.08863
0.15651
0.00452
-0.02144
0.04562
-0.03203
-0.03609
-0.00859
0.10271
0.07895
0.12441
-0.03811
-0.00247
-0.24405
-0.13780
0.00892
-0.11122
0.08085
-0.01453
-0.11908
-0.10524
0.01479
0.01109
0.01320
-0.08304
0.07207
0.07913
-0.04491
0.10666
0.10586
-0.13451
-0.12988
0.04484
0.01147
-0.00419
0.18125
-0.00410
-0.17914
-0.01245
-0.15709
0.19407
-0.18374
-0.11595
-0.06347
0.04830
-0.10627
-0.03362
-0.00930
-0.09563
0.00549
0.01263
0.04599
-0.09004
0.22642
0.27043
-0.00538
-0.01460
-0.02362
-0.09812
-0.00026
0.22858
-0.00428
-0.00238
-0.06611
-0.08573
0.08075
0.01114
-0.04504
-0.00447
-0.00321
-0.09257
-0.00746
0.18331
-0.00624
-0.14919
-0.05393
0.04266
0.11232
-0.04967
0.00728
-0.23585
-0.01108
0.11114
-0.06528
0.00477
-0.01111
-0.05922
-0.04542
-0.14695
-0.01536
0.25252
-0.13688
-0.01174
-0.14597
-0.01574
0.03429
-0.12174
0.00274
-0.18245
-0.08417
0.01518
-0.06023
-0.02670
0.18502
-0.06245
0.04431
0.08298
-0.01918
0.04614
0.05067
-0.01291
0.23888
-0.00113
-0.02241
0.02248
0.14648
0.11702
0.07798
0.25409
-0.10134
0.02647
-0.12626
0.07543
0.06979
-0.08401
0.19585
0.01079
0.00990
-0.04097
0.19863
0.15047
-0.07919
0.10281
-0.01915
0.05998
-0.01948
-0.05381
-0.15434
-0.00995
0.02951
0.17104
-0.16791
-0.09314
0.03767
-0.02074
-0.00518
0.02915
0.00510
0.04180
-0.04583
-0.01278
-0.04323
0.12752
0.14555
0.16551
-0.03791
0.04709
-0.02348
-0.00333
-0.01837
-0.07368
-0.01459
-0.16721
0.16605
-0.00064
-0.03219
-0.04100
-0.02285
-0.08864
-0.00157
0.04761
-0.06852
0.02215
0.00155
-0.02216
-0.00287
0.01009
-0.08727
-0.06822
-0.00777
0.02785
-0.03624
-0.02136
0.06117
0.05097
-0.03805
-0.06679
-0.06027
-0.01624
-0.00990
-0.00913
0.05724
-0.12047
0.14259
-0.12579
-0.01307
-0.11720
0.05923
-0.06464
0.03007
0.08106
-0.00721
-0.04018
-0.04837
-0.12672
0.18592
0.14228
0.10536
0.02698
-0.00045
-0.03082
-0.00319
-0.17143
-0.01855
0.23986
0.10570
0.00598
-0.15596
0.27724
0.19364
0.01693
0.06507
0.06962
-0.04420
0.01569
0.03131
0.22224
0.22991
-0.00349
-0.04062
0.09632
-0.09846
-0.03350
0.09496
0.00403
-0.00335
-0.12316
-0.12203
0.00148
-0.01146
-0.00860
-0.03109
0.04214
-0.03678
-0.05218
-0.02852
0.02404
0.16878
-0.07505
-0.02478
-0.00834
0.04689
0.00090
-0.01629
0.00643
0.07674
0.04271
-0.02080
-0.02048
0.12575
0.07353
-0.02785
-0.09456
0.01317
0.04997
0.04841
-0.09981
-0.02446
-0.03813
-0.05657
-0.01017
-0.02306
-0.02439
-0.00901
-0.05407
-0.10782
-0.02905
-0.04474
0.08851
0.01380
0.00808
-0.00558
0.08369
-0.04589
-0.00527
-0.03934
0.02615
0.00429
-0.15576
-0.10693
-0.29629
0.00549
0.02791
-0.14183
0.03290
-0.02010
-0.10218
-0.02057
-0.13117
-0.00047
-0.24114
0.03189
-0.12094
0.05088
-0.05073
0.04588
0.00287
0.06944
0.06501
-0.07448
0.02582
0.04762
-0.04053
0.01190
-0.07167
-0.15395
-0.06860
-0.08865
-0.00101
-0.04965
0.00062
0.01328
-0.05693
-0.06807
-0.04183
-0.05189
0.15548
0.08113
0.00539
0.01486
-0.00415
-0.07903
0.07055
0.05679
-0.00644
0.06930
0.06364
-0.06683
0.03434
-0.08878
-0.01921
-0.04193
0.02184
0.01030
0.04535
-0.02988
0.01899
0.29248
-0.05706
-0.03011
-0.09691
-0.00298
0.04408
-0.15590
0.01537
-0.04327
-0.00456
-0.02193
-0.10546
0.17721
-0.11155
0.16318
-0.00465
-0.00967
0.08553
0.01047
0.00615
-0.06137
0.12242
-0.05267
0.02255
-0.00765
-0.07844
0.04725
0.18744
-0.01620
0.09546
-0.06793
0.20713
-0.09624
-0.01937
-0.04274
0.06467
0.12027
-0.13677
-0.02144
-0.04684
0.00236
-0.01218
-0.22965
0.00205
0.03639
0.01404
0.02397
0.00869
-0.10406
0.06951
-0.03684
-0.01237
0.08382
-0.14259
-0.05653
0.07972
-0.00859
0.03186
-0.11480
-0.11250
0.03298
-0.01488
0.02837
0.01602
0.11137
-0.01497
0.07313
-0.00626
0.15146
-0.07479
0.06600
-0.09390
-0.05138
0.04056
-0.05123
-0.04491
-0.04905
-0.08093
-0.04799
0.05207
-0.05213
0.03303
0.03277
0.00273
0.00248
-0.00356
0.03338
-0.08560
0.02528
0.00561
-0.07164
-0.03506
0.18853
-0.01066
0.01842
0.00034
-0.00298
0.15104
-0.17090
-0.05533
-0.00924
0.05090
-0.10056
-0.01464
0.01431
-0.00657
0.05563
0.13071
-0.04556
0.01136
-0.00298
-0.00624
0.03069
0.03656
0.23200
-0.08436
-0.01203
0.14736
0.04206
-0.10908
-0.12491
-0.02453
0.16815
-0.14435
-0.20219
-0.03940
0.01253
-0.06709
0.01031
-0.01554
-0.04189
0.03261
0.18567
-0.01138
0.01356
-0.03013
0.01841
-0.00874
-0.01800
-0.06003
0.01170
-0.05866
0.03531
0.21181
-0.00338
0.02984
0.06357
-0.05532
-0.06216
0.17485
-0.05402
0.00631
0.17414
-0.07977
-0.05092
-0.05119
0.00733
-0.06916
0.02482
0.05215
0.01205
0.12607
-0.06447
0.05391
-0.01755
-0.11144
0.00446
0.02616
0.03615
-0.19487
0.06633
-0.03857
-0.11108
0.13207
-0.00731
-0.05933
-0.03665
-0.03222
-0.01648
0.05764
-0.05132
-0.07243
0.01941
0.08671
-0.06286
-0.00097
-0.05636
0.01306
-0.01825
-0.00172
-0.03335
-0.05997
-0.02579
-0.09270
-0.09228
0.03407
0.20511
0.07049
-0.18220
0.06054
-0.00085
0.00547
-0.06686
-0.03332
0.24456
-0.09495
-0.06826
-0.02384
-0.12073
-0.10451
-0.03588
0.00758
-0.00765
-0.00237
0.13148
0.03799
-0.04397
0.09803
0.02057
-0.12137
0.00202
0.01099
-0.06471
0.01263
0.21273
0.01249
-0.00793
0.12676
0.01008
-0.02267
0.03573
0.11796
0.05244
-0.02130
-0.04448
-0.06226
0.06840
-0.06979
-0.08737
-0.03311
-0.05716
0.07625
0.14299
0.11440
-0.06314
0.00545
-0.10824
0.20044
-0.00502
-0.05445
0.32275
-0.05217
-0.06244
-0.10056
-0.20368
0.00738
0.00124
-0.07112
0.04002
-0.00005
0.14940
-0.03871
0.01891
0.06278
0.04067
-0.01215
-0.03645
0.03753
-0.10954
-0.03741
0.01004
-0.02222
0.03626
-0.02379
-0.02889
0.02632
0.06633
-0.09331
0.25430
0.09602
-0.01040
0.00128
-0.08173
0.14413
-0.12524
-0.05480
0.00017
-0.02261
0.05187
-0.00377
0.01259
-0.05553
0.00568
-0.02050
-0.06958
-0.03397
-0.02005
-0.09703
0.16348
-0.06687
-0.02935
-0.01700
-0.08982
-0.04797
-0.06492
-0.07324
0.00487
-0.03333
0.00016
0.00001
0.02524
-0.04806
-0.07180
0.12917
0.03514
-0.05902
-0.06576
0.13238
0.00766
-0.00570
0.18402
0.27287
-0.10168
-0.03662
0.09468
-0.08199
0.00750
0.01512
-0.03880
-0.01911
-0.01329
-0.01101
-0.01483
0.00506
-0.16818
-0.03803
0.14235
0.04948
-0.02030
0.03999
0.00205
-0.00534
-0.09753
0.00751
-0.00023
-0.05656
-0.00241
0.08699
-0.03057
0.18006
-0.00730
-0.04756
0.01050
-0.03259
0.13203
-0.14498
0.00460
-0.12495
0.00198
-0.04434
-0.00849
-0.04181
0.08821
0.00631
-0.06551
-0.08399
0.00306
0.00240
-0.13657
0.05552
-0.02332
-0.06468
-0.05969
-0.03471
0.06034
-0.06256
0.01477
0.08611
-0.01274
0.01351
-0.04998
0.03846
0.05519
0.07705
0.04935
0.03113
-0.04559
-0.00731
-0.00277
0.02901
0.00948
-0.13406
0.04888
0.07992
-0.08747
-0.05254
0.03182
-0.08094
-0.13449
-0.18502
0.01410
0.04881
-0.16413
-0.11627
0.04907
-0.12732
-0.05134
0.09092
-0.05551
0.05945
-0.00176
-0.05692
-0.01179
0.20423
0.19366
-0.14078
-0.16307
-0.02693
-0.02883
0.03226
-0.01007
-0.00271
-0.03915
-0.01096
-0.10519
0.15807
-0.00527
0.02225
0.00901
-0.01354
-0.06777
0.00279
-0.00000
-0.01020
0.13904
-0.05353
-0.05469
-0.02851
-0.00108
-0.03849
0.06887
-0.03478
-0.01722
0.03203
-0.13390
-0.08962
0.00007
0.12499
-0.01336
-0.02415
-0.00471
-0.11641
0.07708
0.13140
-0.13046
0.04346
-0.01855
-0.01230
-0.12118
-0.13645
-0.03296
-0.01398
0.00111
-0.09772
-0.07458
-0.03723
-0.16795
-0.03880
-0.01723
-0.07218
-0.01573
-0.02407
0.02802
0.01596
-0.00487
0.01111
-0.00099
-0.00057
0.01619
-0.02315
-0.19271
-0.06751
0.01417
0.06567
0.08301
0.23186
-0.09268
-0.04927
-0.03912
-0.01546
-0.04271
0.00032
-0.23510
0.02071
0.01147
-0.09370
-0.01375
0.00568
0.23366
-0.08790
0.02325
0.05126
0.01450
-0.00337
0.17780
0.00536
0.02096
-0.13179
0.09028
-0.10696
-0.00354
-0.04011
-0.12172
-0.02001
-0.03307
-0.00787
0.04140
-0.00008
0.06240
-0.10720
-0.05876
0.00830
-0.14745
0.02527
0.00200
0.04626
0.06088
0.00678
-0.09902
-0.13641
-0.01408
-0.05496
-0.18168
-0.05954
0.05873
-0.03926
-0.04499
-0.11369
0.01165
-0.00496
-0.13274
-0.05445
0.00731
0.14101
0.09669
0.18945
-0.01793
-0.05337
-0.03385
-0.05785
-0.02396
-0.06475
-0.08799
-0.06979
-0.02888
-0.00396
0.06501
-0.10299
0.07562
0.00357
-0.00448
-0.11816
0.08143
-0.01560
0.15961
0.14115
0.11345
0.01336
-0.03950
-0.00635
0.04104
-0.13545
-0.04630
-0.20375
-0.07457
0.08995
0.06452
0.06115
-0.01353
-0.01096
-0.00204
-0.14518
-0.14251
-0.04167
-0.02002
0.17734
-0.01312
-0.00286
0.11071
-0.00582
-0.03827
0.17080
0.03525
-0.02050
-0.02778
-0.06229
-0.00734
-0.09793
0.00066
0.04540
-0.16986
0.10233
0.07265
-0.02484
-0.05431
0.25147
0.01276
-0.00030
0.02560
0.00709
0.18882
-0.05108
-0.03923
0.04070
-0.04435
0.14210
0.16478
-0.15721
-0.08856
-0.03105
0.20662
0.29802
-0.05431
-0.08132
0.02580
-0.04140
-0.15682
-0.14367
-0.18934
-0.08015
0.00803
-0.03191
0.09159
0.00214
-0.00685
-0.18506
0.20302
-0.06132
-0.05187
0.03031
0.13866
-0.08668
-0.03488
-0.07923
-0.14121
-0.05416
-0.08024
0.03903
0.03054
-0.01066
-0.03044
0.04407
0.01206
0.01997
-0.01471
0.04324
-0.02039
0.01373
-0.05944
-0.06858
0.03920
-0.02207
0.12857
0.01611
0.02372
-0.05457
-0.17139
0.09240
-0.00815
-0.00696
-0.07267
-0.08403
0.02322
-0.00046
0.00905
0.15199
-0.15089
-0.03892
-0.05434
-0.00286
-0.00378
-0.05742
-0.05729
0.01170
0.01772
0.01395
-0.17140
0.08340
0.05484
0.00278
-0.12030
-0.02166
-0.01614
0.00940
0.03100
0.01720
-0.10226
-0.01682
0.02667
0.09097
-0.04149
-0.14274
0.00048
-0.12591
-0.02924
-0.02353
0.00999
0.16022
-0.05801
0.01697
-0.02951
0.00217
-0.08413
0.13347
0.04252
-0.00982
-0.15822
-0.07739
-0.03913
-0.01790
-0.02248
0.01219
0.07248
-0.06556
0.10892
-0.02472
0.00343
-0.00372
-0.08849
0.16821
-0.03085
-0.14259
-0.00069
-0.01819
0.17454
0.08728
-0.08215
-0.06410
-0.04609
0.01111
0.00856
-0.12684
-0.00088
0.12735
0.23580
0.08201
0.02472
-0.08703
-0.01138
-0.15717
0.01902
0.08960
-0.00095
-0.07446
0.02628
0.00985
0.00856
-0.06750
-0.04623
0.11255
-0.06617
-0.03428
0.11279
0.03553
-0.08170
0.03748
0.08975
0.02975
-0.11329
-0.00372
0.12335
-0.12623
0.02291
-0.10169
-0.08698
0.10291
0.01882
-0.04572
-0.00421
0.04477
-0.03708
0.24033
-0.00107
0.00765
-0.05063
0.03306
-0.02155
0.00857
-0.15113
-0.04906
0.10085
-0.07726
-0.05341
-0.22287
-0.10237
-0.17295
-0.01178
0.07003
0.11121
0.02757
0.27312
-0.00841
-0.10406
0.01373
-0.05349
0.09873
0.00587
-0.13804
0.04254
-0.20952
0.06113
0.05766
-0.04100
0.07204
-0.08558
0.09127
0.10826
-0.10901
0.12104
-0.03289
-0.18966
-0.00908
-0.00001
-0.00851
-0.06929
0.02914
-0.00709
0.01928
0.38524
-0.03604
-0.01562
-0.11309
0.13287
0.01451
0.15668
0.04518
-0.01941
-0.06591
0.14051
0.23224
-0.20957
-0.04380
0.11693
0.15261
0.10757
-0.14700
0.12564
-0.00422
0.04423
0.01421
0.02390
0.00287
0.00311
0.00825
0.31073
-0.12551
0.08585
0.00870
-0.05677
-0.07364
0.06819
-0.05999
-0.13588
-0.02695
-0.01041
0.31941
0.01560
-0.01438
-0.02454
0.15177
-0.04763
-0.02457
0.02235
0.17810
0.04548
0.05856
0.07703
-0.07449
0.14690
-0.01463
-0.04995
0.01513
-0.04136
-0.07984
0.03878
0.08517
0.03624
-0.05072
-0.11427
0.05935
-0.02761
-0.04270
0.04953
0.00298
-0.20116
0.10970
-0.00596
-0.01025
-0.07473
0.29484
-0.07444
-0.02825
0.03413
-0.12559
-0.16097
0.02602
0.07998
-0.01496
0.20419
-0.01108
0.02883
0.01375
-0.01899
0.19169
0.14450
0.00646
-0.10173
0.01510
0.07048
-0.13333
0.01831
0.04553
0.12532
0.11574
-0.08140
-0.04406
0.00941
0.02002
0.04573
-0.01837
-0.00481
0.02914
-0.05162
-0.10887
0.06832
-0.09057
-0.09730
0.14439
-0.02475
0.01043
-0.08019
0.11223
-0.21285
-0.08663
-0.11744
0.01680
-0.03530
-0.06596
-0.14385
-0.03121
0.01835
0.14562
-0.08598
0.00039
0.09058
0.10744
0.02140
-0.01898
-0.02511
-0.09346
0.15239
0.05442
-0.02317
0.01939
-0.00190
-0.02273
-0.06296
-0.09864
0.00605
-0.03711
-0.03386
-0.06722
0.00586
0.28971
-0.04051
-0.13658
-0.04993
0.16765
0.00592
0.03732
-0.13430
-0.03470
-0.18973
-0.14907
0.15403
0.00364
0.06386
-0.10911
0.03449
-0.00888
-0.09470
0.16492
0.12365
-0.01700
-0.00364
0.01058
-0.04931
-0.01213
-0.05130
-0.05261
0.08863
-0.09065
0.13125
-0.14096
-0.22518
-0.00456
0.02478
0.01202
0.03533
0.00590
-0.04234
0.01903
0.05171
0.11453
-0.04245
-0.02753
-0.12118
0.03781
0.25621
0.10684
0.04761
0.17348
-0.01848
0.10666
-0.06915
-0.07297
0.00193
0.09495
0.01885
0.16016
-0.19621
-0.03704
0.04379
0.00850
0.00082
-0.06876
0.01736
-0.00975
0.13841
-0.02740
-0.02447
-0.00911
0.06895
-0.04017
0.01655
0.05147
-0.10839
-0.00221
-0.02416
-0.04241
-0.06345
-0.14051
0.26122
-0.15409
0.17359
-0.06254
-0.12994
0.08172
0.07027
-0.06511
-0.03110
-0.00445
0.09390
0.11545
0.08950
-0.01649
0.10378
-0.00225
-0.08722
0.06511
-0.13499
-0.00799
-0.07854
0.00562
0.07576
-0.06240
-0.05281
0.11137
0.02134
0.08670
0.00571
0.02562
0.18638
0.03444
-0.06416
-0.12898
-0.01471
0.19917
-0.15093
0.02435
-0.01807
0.00290
-0.06429
-0.08749
0.10310
-0.06359
0.07728
0.01126
-0.02580
0.19295
-0.13516
-0.02653
0.05378
0.06140
-0.07905
0.06449
0.04092
0.00423
-0.00459
0.05204
0.00481
0.01258
0.00206
-0.00817
0.33674
0.01612
-0.12051
-0.00149
0.02537
-0.00045
0.00228
0.10280
0.02270
0.05936
-0.14102
-0.00564
0.18854
-0.01762
0.10770
0.06215
-0.02933
0.07746
-0.09355
0.05696
0.00512
0.01951
0.09964
0.25029
-0.21832
0.18336
0.03050
0.21612
-0.15691
0.11595
-0.05742
0.16524
0.15693
0.04239
0.24142
0.11121
0.01015
-0.02260
0.05593
-0.00651
-0.03894
0.06888
-0.05147
0.11647
-0.04778
0.06631
-0.06394
-0.00581
-0.00236
0.02550
-0.00660
0.21120
-0.00498
0.09675
0.00499
-0.25031
-0.17745
-0.13661
-0.04265
-0.07620
0.09014
-0.14175
-0.02847
-0.02213
-0.02776
0.11910
0.24629
0.12893
-0.01365
0.10424
-0.00951
0.06724
0.09449
0.05975
0.13974
0.14010
-0.00165
-0.04533
0.06186
0.18940
0.07599
0.19215
0.14177
-0.03645
-0.08345
-0.06014
0.20587
-0.03820
-0.12504
-0.03664
0.22073
-0.02911
0.04704
0.00834
0.20144
0.01208
0.05587
-0.00236
0.07215
0.02314
-0.08511
0.02793
-0.04549
0.12289
-0.07836
-0.00514
-0.13898
-0.01306
0.12781
-0.07659
-0.06114
0.16649
-0.12626
0.14956
-0.03936
0.34538
0.03641
-0.02473
-0.04758
-0.04848
0.09368
0.07823
-0.06847
-0.01543
0.15060
0.11369
0.12893
0.04140
0.00869
0.04606
-0.19050
0.34182
0.08359
-0.12576
-0.14222
0.00435
-0.01321
0.06539
-0.02250
0.15726
-0.01394
-0.10337
-0.00451
-0.02640
0.19424
-0.07491
-0.02126
-0.10926
0.02683
0.08624
-0.04249
-0.01499
0.06160
-0.12732
-0.04565
-0.01689
-0.12651
0.07424
-0.01723
-0.02225
-0.07936
0.01424
0.06451
-0.00149
-0.09089
-0.00795
0.00382
0.23077
0.10406
0.13054
-0.05588
0.02835
0.01582
-0.05126
-0.01512
0.05823
0.07262
0.06241
-0.06160
0.14371
-0.01834
-0.00143
0.10874
0.01769
0.00212
-0.04858
0.12032
0.14335
0.05384
-0.16905
0.11592
0.13742
0.17156
0.02360
0.10160
0.34402
-0.01133
0.25204
-0.02573
-0.00263
0.10835
0.08722
0.00238
-0.04493
0.02603
-0.07763
0.03964
-0.07063
-0.12500
0.13226
0.15517
-0.00297
-0.04702
-0.07833
0.03633
0.14672
0.15606
0.23996
0.03468
0.04222
-0.00566
0.10477
0.19878
-0.21935
-0.03457
-0.02765
0.15203
-0.22136
0.01513
-0.01864
0.43996
-0.07302
0.13615
-0.09945
-0.04386
0.08496
0.04224
0.00653
-0.10617
0.16677
0.10386
0.05755
-0.02441
0.01529
0.03108
-0.02305
-0.12229
0.00267
0.30206
0.00991
-0.01821
0.03223
0.02728
-0.02920
-0.07385
0.25218
0.01339
-0.04018
0.17170
-0.10042
-0.01843
-0.04347
-0.00241
-0.10420
0.15689
-0.04943
-0.02360
-0.09909
-0.01229
-0.15538
0.01633
-0.01151
0.10545
-0.08103
0.01746
0.10581
-0.06218
0.00316
0.02619
-0.10574
-0.00997
0.06943
-0.12253
0.07900
0.11545
0.24323
-0.00606
0.01281
-0.00960
0.19754
0.06418
0.05022
0.00408
0.00312
-0.02684
-0.12997
-0.07479
0.13417
-0.01051
0.01476
0.11938
0.07693
-0.05168
0.14645
-0.13693
-0.02723
-0.13596
0.01637
0.07767
-0.09547
0.10610
0.03168
-0.04065
0.07795
0.17141
-0.11713
-0.13111
0.01133
0.12685
-0.02267
-0.01500
-0.00239
-0.06461
-0.06156
-0.13430
0.10283
0.01282
0.00854
-0.01981
0.00915
-0.05063
-0.03453
0.20749
-0.00836
0.14222
0.22538
0.31467
0.13987
-0.00939
-0.02363
-0.08639
-0.19665
0.07408
0.05040
0.08954
0.04626
-0.07124
0.17088
-0.02817
-0.07747
-0.03910
0.07643
0.26226
-0.00868
-0.00158
0.05620
0.01848
0.03339
0.04098
0.00274
0.01482
0.05300
-0.03558
-0.04356
0.14081
0.03189
0.09629
-0.04179
-0.10326
0.02281
0.05901
0.01905
-0.13890
-0.06587
0.06491
0.43878
0.07384
-0.04173
0.19519
0.10252
-0.04616
-0.00529
-0.00316
0.01583
-0.03031
0.00507
0.00735
0.03109
0.01293
0.08737
0.03291
-0.09197
-0.04013
0.01117
-0.03745
-0.09647
0.01862
-0.02623
0.06600
-0.00288
0.03812
-0.09487
0.08663
0.00278
0.05103
-0.04308
0.04036
-0.01808
-0.08249
0.10932
0.03962
-0.17397
-0.01251
0.00235
-0.14664
-0.02790
0.01307
0.11619
-0.05868
0.07608
-0.04440
-0.07037
-0.13340
0.00850
0.02501
-0.01648
-0.05897
0.02205
-0.10974
-0.01513
0.05152
0.00657
-0.03579
-0.01806
0.11110
0.12032
0.00609
0.09262
0.11866
0.05968
0.07489
-0.07919
0.29607
0.12580
-0.02828
0.04868
-0.02264
0.14827
0.01076
0.01101
-0.09739
-0.08969
0.06975
0.10642
0.14705
0.00330
-0.02929
0.06514
-0.00739
0.08411
0.00733
-0.05817
-0.10509
-0.14579
0.11425
0.01408
-0.01268
-0.14065
0.08512
-0.10717
0.04817
0.17305
0.14818
-0.01239
-0.08513
-0.09362
0.03720
-0.09692
0.12979
-0.00387
0.01948
0.13869
-0.02112
0.10729
0.10983
-0.04818
-0.03970
-0.02885
-0.05120
0.01529
0.03320
0.01787
0.09600
-0.11470
0.19131
-0.06264
-0.06343
-0.17990
0.05267
0.01589
-0.09409
-0.04211
0.04376
-0.09685
0.08824
-0.13805
0.09814
0.28000
0.32172
0.23081
-0.01137
-0.10903
-0.11119
0.08396
0.17129
-0.06203
0.16036
-0.00236
-0.03412
0.20494
-0.04804
-0.08948
0.12681
-0.06939
-0.10508
-0.07348
-0.02731
0.12782
0.04227
0.01826
-0.08551
-0.06695
0.01687
0.33432
0.10860
-0.03626
-0.04660
-0.04091
0.04861
0.03416
-0.08430
0.08526
-0.09214
0.11743
0.02064
0.09128
-0.07310
0.05252
0.09724
-0.03143
-0.15195
-0.10900
-0.11006
0.04806
0.05332
0.04864
-0.10739
-0.02582
0.10340
-0.01272
-0.12146
0.06348
0.04487
0.01819
0.09090
0.02286
0.00552
-0.02709
-0.02202
-0.09123
0.19180
0.00480
0.08375
0.03876
-0.06019
0.13311
-0.17278
-0.10883
0.01597
-0.05147
0.03858
0.00065
-0.05868
-0.02152
-0.03258
-0.03395
-0.09479
0.05110
0.08463
0.00706
-0.00582
0.19251
0.06671
-0.00863
0.01915
-0.03302
-0.09975
-0.13576
0.04826
-0.06613
-0.00238
0.05224
0.01735
0.19738
0.04811
0.05496
0.04589
0.10952
-0.12515
-0.02533
-0.07186
-0.11276
0.11532
-0.07846
-0.11436
0.18997
0.09765
-0.04149
0.08137
-0.02291
-0.01100
0.03067
0.08656
-0.07138
0.02404
0.03492
-0.07687
0.18361
0.14426
0.16499
0.13077
0.00281
0.14272
0.18394
0.09909
0.00201
-0.08789
-0.03134
-0.00094
0.01003
-0.11595
0.07631
-0.00022
0.00610
-0.10664
-0.05883
0.13612
-0.06707
0.02465
0.01183
0.03413
0.15641
0.01542
0.04500
0.05230
-0.04101
0.00479
-0.04709
-0.00717
-0.17107
0.01506
0.18225
-0.05914
0.14673
0.03843
-0.09176
-0.00006
0.10222
0.09324
-0.12954
0.14968
-0.03502
0.08484
-0.03147
-0.11354
0.12930
0.02937
-0.06067
-0.01414
-0.02776
0.18703
0.17475
0.12782
-0.00479
0.18443
0.03794
0.09642
-0.03784
0.03039
0.16039
-0.22898
-0.11572
-0.05385
-0.09769
0.05353
-0.14164
0.09853
-0.02153
-0.14624
0.00621
0.02943
0.12995
-0.05547
0.08293
0.20608
-0.12157
0.06304
0.02324
0.01845
-0.09281
-0.14197
-0.14489
-0.23410
0.00596
-0.05147
-0.05686
0.06460
-0.08936
0.11666
-0.02103
-0.03904
0.09415
0.04569
0.18936
-0.02868
0.03992
-0.04035
-0.17607
0.15304
-0.02325
0.10612
-0.15687
0.00075
0.05071
0.09403
-0.04933
-0.13998
0.01873
-0.02851
-0.09710
-0.04080
-0.07534
-0.11697
0.07787
0.05618
-0.03943
0.10759
0.04853
-0.12977
0.02913
-0.19079
-0.04878
-0.11665
-0.06862
-0.05681
0.07360
0.12814
-0.03432
0.09154
0.10979
0.00530
0.02418
-0.00134
-0.15551
-0.01345
0.15950
0.02196
0.02018
0.15030
0.00092
0.02916
-0.02487
-0.11221
-0.15719
-0.03515
-0.09472
0.05918
0.17709
0.20388
0.12530
0.27075
0.10767
-0.00444
-0.09135
0.11407
-0.09123
-0.11354
-0.08952
-0.06348
0.05508
0.14986
-0.09939
-0.10226
0.05798
-0.14362
0.06405
-0.02248
0.10197
-0.03418
-0.05109
-0.04395
0.18012
-0.02339
0.00765
0.05338
-0.05057
0.13636
-0.05745
-0.00538
0.04952
0.01512
0.06370
0.10367
0.09601
0.04917
-0.02623
0.13640
-0.07857
-0.07829
-0.04893
0.15045
-0.00397
-0.00523
-0.12917
0.14467
-0.00069
-0.00531
0.18728
-0.00444
0.08985
-0.04153
-0.01111
0.02077
0.12157
-0.17219
-0.06545
-0.04476
0.00816
0.03682
0.02508
0.24601
-0.02843
0.10708
-0.08891
-0.13366
0.06248
0.19035
-0.12274
-0.16282
-0.12988
-0.04330
-0.06767
-0.04167
-0.08812
0.19427
0.07758
0.11839
0.24191
0.02567
-0.04005
-0.02101
-0.09003
0.18223
-0.09555
-0.15750
-0.10998
-0.02972
-0.00514
-0.02166
0.01704
0.08643
0.06025
-0.06897
-0.01294
-0.16755
-0.01648
-0.08115
0.04825
0.00291
-0.10790
0.10888
0.24141
0.03957
-0.04162
0.17956
0.09635
-0.11957
0.07485
-0.10952
-0.11555
-0.02350
-0.05449
-0.15644
-0.01266
0.10886
-0.13570
0.07980
-0.04821
-0.05681
-0.02276
0.09829
0.03802
0.11982
-0.01937
0.16069
0.01966
-0.05782
-0.00308
0.00100
-0.13155
-0.07077
-0.05859
0.05521
0.14263
-0.06145
0.01386
-0.00767
-0.11419
-0.01138
0.02551
-0.05418
-0.00126
-0.11642
-0.13782
0.05140
0.01453
0.12635
-0.06676
-0.08642
-0.09958
0.06208
-0.04836
0.03850
-0.04788
-0.07838
0.21331
-0.05253
0.19375
-0.00781
0.04032
0.09026
0.14124
0.05739
0.00516
0.01205
-0.07187
-0.06906
0.13948
-0.13336
0.15156
0.07531
0.04243
0.12836
0.09630
0.08967
-0.17497
0.09127
0.00923
0.12056
-0.02697
-0.11427
-0.11494
-0.10739
0.04606
0.03525
0.08639
0.13228
0.01403
-0.06262
0.21734
0.00624
0.03421
0.00428
0.12420
0.12992
0.17850
0.04449
0.00584
-0.11649
0.01458
0.25309
-0.00995
-0.16674
-0.14060
0.02471
0.01231
-0.06746
0.11402
-0.03073
0.01498
0.06899
-0.00017
0.02492
0.10887
0.11813
-0.01809
0.08021
0.14961
-0.05958
0.00830
-0.01137
0.00861
-0.00385
0.10001
-0.21648
0.00733
-0.07554
0.12519
0.09078
-0.13344
0.08666
0.07634
-0.04963
-0.03378
0.17159
-0.08332
0.03303
-0.02331
0.01779
-0.03446
0.00241
0.14760
-0.11776
0.00611
-0.10080
-0.18162
-0.08309
0.04125
-0.02692
-0.01392
0.02172
-0.06275
-0.12062
0.13932
0.13072
-0.01705
0.01290
0.01744
0.01179
0.20021
-0.12285
0.08039
-0.02694
0.04438
-0.02162
0.02611
-0.05293
-0.13245
0.07259
-0.09933
0.13951
-0.10736
0.10794
-0.06328
-0.09633
0.14770
-0.00925
-0.02560
0.14110
0.08658
0.00059
-0.10430
-0.01580
-0.10510
-0.17776
-0.17875
-0.18336
-0.04260
0.07395
-0.06104
-0.20713
-0.03840
0.03352
-0.20964
-0.01851
0.07135
-0.00891
-0.12439
-0.00110
0.13441
-0.13084
0.17023
0.05308
-0.22689
-0.05496
-0.08453
-0.11604
0.10879
-0.13398
0.11448
-0.01853
-0.08876
-0.01876
-0.08358
0.00962
-0.25155
-0.08115
-0.09602
-0.10191
-0.07766
0.00003
0.08221
-0.02188
0.09066
-0.18010
-0.04116
0.14443
-0.13528
-0.19078
0.14341
-0.05716
0.14127
-0.07275
0.01009
0.04952
0.04359
-0.00622
0.02865
-0.06956
0.04513
-0.18612
0.04092
-0.01515
0.06915
-0.10514
-0.01015
0.00874
0.08334
0.03669
0.08498
-0.04990
-0.01324
0.10278
-0.04200
-0.04941
-0.10320
-0.12736
-0.02302
-0.07085
-0.12505
0.10340
0.04132
0.15006
0.14474
0.06677
0.23500
-0.02615
0.04593
0.04523
-0.09773
0.03300
0.08155
0.13688
0.09664
0.07530
-0.16169
-0.20896
-0.14552
-0.23904
-0.00550
0.03054
-0.06975
-0.02778
-0.20200
0.15956
-0.08746
0.14472
0.14580
-0.03575
0.04137
0.00743
-0.00964
-0.02671
0.16449
-0.18251
0.24976
0.15493
0.10542
0.01701
-0.00045
0.11253
0.03041
0.01656
0.30888
0.04937
0.00228
-0.11613
0.05983
-0.03377
-0.00555
0.00783
-0.03509
-0.16187
-0.03080
-0.11332
-0.09789
-0.03031
0.06486
0.00033
-0.06921
0.06170
0.24838
0.20695
-0.07211
0.13290
0.00555
0.05910
-0.18910
-0.12551
-0.09758
-0.05836
0.09945
-0.01744
-0.12465
0.06411
-0.15878
0.16873
-0.11641
0.07871
-0.13359
0.01145
-0.10106
0.00978
0.00282
-0.07281
-0.14200
-0.01066
-0.07231
0.04003
-0.08527
0.03564
0.14174
0.10100
0.02352
-0.01982
0.02569
0.17608
0.00016
0.13962
0.04179
-0.10238
-0.07164
0.00917
-0.16434
0.03344
0.15420
0.00828
-0.10564
0.12903
-0.05904
0.06454
0.01799
-0.06255
0.14061
-0.15604
-0.12235
0.11721
-0.12604
0.01449
-0.01043
0.14738
0.03592
0.15648
-0.05439
-0.07174
0.15469
-0.02772
0.19559
0.08087
-0.01926
0.17482
-0.05891
-0.00411
0.00842
0.02297
-0.07431
0.21066
0.02882
-0.01212
0.02258
-0.01092
-0.12952
0.02024
0.13041
-0.01343
0.08209
0.01419
0.13857
0.11984
-0.06756
0.16728
0.18090
0.00833
-0.04232
-0.04732
-0.17358
-0.09116
-0.02905
-0.01089
0.16431
0.10614
-0.00296
-0.05536
-0.07598
-0.06278
-0.11580
0.02430
0.05541
-0.06817
-0.09712
-0.02746
0.02043
0.01012
0.00590
-0.08904
0.13046
0.00063
-0.04185
0.00847
-0.04162
0.12210
-0.04894
0.01095
0.05382
-0.05599
0.10200
-0.08638
-0.05247
0.07493
-0.04232
0.06548
0.15199
0.12750
-0.07607
-0.07046
0.01419
0.12022
-0.04102
-0.06182
0.14140
0.01197
-0.18073
0.02679
-0.01938
0.03958
0.12924
0.12852
-0.03119
-0.01793
0.10459
-0.11994
-0.12864
0.04152
0.03795
-0.12306
-0.11914
0.03776
0.01731
0.04457
-0.15140
-0.10430
0.00078
-0.00063
0.07115
-0.07172
0.19739
-0.00390
0.13382
-0.07045
-0.08889
-0.11424
-0.05841
-0.00930
0.09479
-0.08472
0.13890
-0.13615
0.10688
-0.05741
0.12165
0.00273
0.09343
-0.01024
0.00098
-0.00598
0.03336
-0.13766
-0.13117
-0.03569
-0.07858
0.10471
0.01845
-0.06873
0.14477
0.05516
0.00908
-0.05011
0.16295
-0.16194
-0.19426
0.08437
-0.00973
-0.08671
-0.12851
-0.12175
-0.03387
0.02614
0.12709
-0.03481
-0.02005
-0.00997
-0.06650
0.01312
-0.20520
0.21274
-0.08930
-0.03741
-0.01675
0.02635
-0.06117
0.04937
-0.06469
-0.09059
-0.10070
-0.17262
-0.04903
0.13651
-0.01625
-0.05967
0.17108
-0.02789
-0.08470
-0.13913
-0.24225
-0.09105
0.03868
-0.01587
0.01060
-0.09027
-0.00963
0.01346
-0.10094
0.04581
0.01449
0.02039
0.01859
-0.06356
-0.13331
0.21647
-0.00145
0.10867
0.02742
0.00324
0.19848
0.18712
0.00705
0.12633
-0.07581
-0.08477
0.16635
-0.03692
0.04880
0.07087
0.01066
-0.06701
-0.17782
0.03632
0.12429
0.01540
-0.08187
0.07198
0.17879
0.02803
0.01026
0.10009
-0.05416
-0.15388
-0.08804
-0.21564
-0.26756
-0.02078
-0.04330
-0.04258
0.12433
-0.06989
-0.05824
0.02351
-0.05952
-0.08444
0.00033
-0.01930
-0.00525
-0.11856
-0.01953
0.09430
0.00331
-0.01104
0.04368
-0.11474
0.07856
0.04967
-0.16964
-0.06527
-0.00184
0.07251
-0.03288
0.01932
0.15411
0.00178
0.06223
-0.09486
0.04854
-0.08986
0.01877
0.01392
0.24574
0.04382
-0.05364
-0.08889
0.00699
-0.06071
-0.04809
-0.04960
0.09215
0.17200
0.01661
0.08431
-0.08278
0.01731
-0.00519
-0.12938
-0.09610
-0.01060
-0.02967
0.12178
-0.10106
0.12088
-0.08265
-0.02983
-0.11142
-0.06821
-0.01349
-0.04053
0.03068
-0.03236
0.22918
0.07495
0.24047
0.01213
-0.04972
-0.08297
0.01198
-0.23871
-0.09014
0.11036
-0.15896
-0.05677
-0.11937
0.01809
0.07022
0.07061
-0.09191
-0.04800
0.05867
-0.05926
-0.06146
0.02859
-0.01982
-0.04840
0.25994
0.13841
0.06907
-0.12390
0.06941
-0.16567
0.03745
0.00720
0.21794
-0.08250
-0.08873
0.07824
-0.16697
-0.22239
-0.04748
-0.02479
-0.17904
-0.06667
0.00684
0.04190
-0.04367
0.08627
-0.09791
-0.02790
-0.05268
-0.18916
-0.08670
-0.04914
-0.04477
-0.00876
0.07480
0.12645
-0.18575
-0.00302
0.01622
-0.10891
-0.13674
0.11614
0.14404
0.01728
-0.11396
0.16704
-0.09375
-0.16420
-0.00945
0.03357
-0.22210
-0.08879
0.00402
0.00745
-0.11936
0.17743
0.04047
-0.01090
-0.00974
0.06740
-0.03645
0.00424
0.15118
-0.10116
0.05612
-0.08752
-0.13056
0.08070
-0.08099
-0.15777
0.11328
-0.08408
0.06679
0.10410
-0.07332
-0.02531
0.10637
-0.01546
-0.04995
0.01137
0.01734
-0.00388
-0.06190
-0.02060
0.01772
0.20789
-0.10193
0.14224
0.03441
0.16217
-0.00758
0.10210
-0.08434
0.16020
0.13364
0.13524
0.02622
-0.13820
0.00239
-0.04150
-0.17442
-0.00422
0.00081
0.11174
-0.06837
-0.00436
-0.20548
0.02807
-0.01199
-0.10962
-0.03318
-0.04287
-0.11461
-0.10115
0.00223
-0.00556
-0.09381
0.00632
-0.08612
-0.00649
0.13276
0.10686
0.07011
0.02905
-0.04727
0.00641
-0.15012
-0.04917
-0.11668
-0.12443
0.03813
-0.01242
-0.06668
0.29130
-0.03786
-0.06629
-0.02936
0.01694
-0.04821
-0.13156
-0.05200
-0.05709
0.03694
-0.07548
0.06210
0.06835
0.38964
0.03056
-0.06596
-0.21709
-0.00328
-0.01432
-0.03139
-0.03145
0.10066
0.14392
0.00630
-0.08958
0.08587
0.07527
-0.02397
-0.17178
-0.09040
-0.02386
-0.04310
0.08726
0.04717
-0.00340
-0.03874
-0.07122
0.06749
0.01269
-0.02724
-0.04154
-0.06715
-0.15344
0.00294
-0.07808
-0.13467
-0.01314
0.09663
-0.00300
0.04253
0.07966
-0.07295
0.05681
-0.06194
0.01739
0.06651
-0.09864
0.10223
0.00243
0.01317
0.04472
-0.03973
0.18157
0.00973
0.01071
-0.05454
-0.01243
-0.13177
0.13435
-0.12235
0.16351
0.03038
0.13318
-0.04279
-0.05132
0.03260
-0.16469
0.25959
-0.03613
0.23206
-0.09845
-0.04258
-0.04601
-0.03334
0.04985
0.02434
-0.01285
-0.02864
-0.00581
0.00148
-0.02680
-0.00602
-0.05352
-0.01638
0.01760
0.04588
-0.01295
-0.08439
0.01607
0.07169
0.12663
0.05365
-0.08396
-0.13462
-0.05431
-0.00024
-0.05975
-0.08386
-0.00405
-0.07576
0.05912
0.03314
0.18590
0.05173
0.02022
0.10668
-0.06356
0.01444
-0.08768
-0.00170
-0.02624
-0.11561
-0.00901
-0.05662
-0.02879
-0.01581
-0.06652
-0.07009
0.06404
-0.00447
0.15724
0.06169
-0.06847
0.00604
-0.04823
-0.15865
0.07187
-0.02279
0.03831
-0.10579
-0.16335
-0.00582
0.08371
-0.01211
0.13669
-0.03452
0.07092
0.01112
-0.03789
0.24576
0.04597
-0.01627
0.10538
0.00410
0.13468
-0.03383
-0.01238
-0.08219
0.13276
0.04630
-0.03859
0.15766
-0.02971
-0.00437
-0.06278
0.00970
-0.00820
-0.15440
0.03273
0.05187
0.04813
-0.13098
-0.12590
0.04337
0.02656
0.08436
0.21089
0.01675
0.08091
0.11567
-0.01680
-0.30195
-0.01181
-0.13464
0.00497
-0.06176
-0.00068
-0.07272
-0.03844
-0.04529
0.10688
-0.12475
0.01799
-0.00998
-0.00350
-0.00612
0.01178
-0.08673
-0.02844
-0.00713
-0.05386
-0.03702
0.23578
0.14985
0.01627
0.11486
0.23067
-0.02171
0.04459
-0.02676
-0.00646
0.06698
-0.16105
0.12900
0.16731
0.08288
0.14343
0.14539
-0.08477
-0.11228
-0.10935
0.04191
-0.00644
0.03704
0.00504
-0.01962
-0.10318
-0.01436
0.02447
-0.05831
0.00211
-0.00971
-0.13262
0.03815
-0.04459
0.12168
-0.07091
0.09724
-0.12504
-0.14091
0.03859
-0.00358
0.02158
0.01507
-0.16520
-0.03927
-0.01218
0.00021
-0.03760
0.15165
0.04847
-0.03924
0.19111
-0.13942
0.06151
0.18828
0.00585
-0.11265
0.19444
0.00954
-0.03262
0.08114
0.07629
0.15258
-0.00591
-0.02364
0.05610
0.15185
-0.06618
0.02432
-0.05869
0.25692
0.14662
-0.08848
-0.12228
-0.05542
-0.00347
-0.15450
-0.04691
-0.02232
-0.02229
0.01856
-0.03597
-0.02392
0.02116
-0.06127
-0.01538
-0.01349
-0.11636
-0.08884
0.08347
-0.10325
-0.04460
-0.03661
-0.14500
0.04936
-0.11730
-0.12220
0.03062
-0.01834
-0.10463
-0.11783
0.19895
0.00425
0.14856
-0.03841
0.04053
-0.00947
0.30004
0.10968
0.06129
-0.10314
0.09675
-0.03013
0.00882
-0.15708
-0.01215
-0.00691
0.12318
-0.19500
-0.06761
0.01750
-0.01265
-0.10905
-0.08048
0.06496
0.03049
-0.00173
0.10495
-0.15289
-0.06640
0.02436
-0.02786
-0.17899
0.20352
0.08398
-0.07547
-0.06445
-0.03869
0.02628
-0.10124
-0.00460
-0.06234
-0.00314
-0.02655
0.00934
-0.02754
0.07346
-0.00370
0.00504
-0.03254
-0.04530
-0.07441
-0.00139
-0.03613
0.00159
0.04063
-0.07690
0.15144
0.25091
-0.15322
-0.00509
0.07330
0.00058
-0.05832
-0.03977
0.17661
0.04807
-0.05697
-0.09826
-0.03607
-0.05245
-0.00521
-0.04205
-0.06889
0.12744
0.01672
-0.14157
0.05226
0.05142
0.04732
-0.02396
0.15287
0.17309
-0.00460
-0.08364
0.00329
0.03603
-0.03477
0.14779
0.06842
0.22432
0.03276
-0.03309
-0.07533
0.00855
-0.12690
0.02836
0.00040
0.14554
-0.00569
-0.04822
-0.01739
-0.04442
-0.00033
-0.08166
0.00735
0.00511
-0.03852
-0.10209
-0.04961
0.16347
0.13135
0.05301
0.04635
-0.05703
-0.07636
0.17891
-0.00705
-0.18346
0.00062
-0.11805
-0.06344
-0.20979
-0.00928
0.11527
0.00366
-0.05296
-0.03506
-0.01108
0.05204
0.15918
-0.05433
0.00635
0.18298
0.03310
-0.04628
-0.14450
-0.07032
-0.05156
-0.07767
-0.00993
-0.01640
-0.07756
-0.04074
0.02718
0.06058
0.22019
0.03433
-0.01247
-0.04333
0.03723
0.18614
-0.03850
-0.01914
-0.06525
-0.12735
-0.04326
0.06709
-0.07455
0.01103
-0.03048
0.10981
-0.08491
0.07573
-0.24424
-0.04236
-0.07513
-0.17379
-0.11864
-0.04560
-0.04151
-0.05192
0.01543
-0.13222
-0.07694
-0.12466
0.00541
0.08752
0.15329
-0.14410
-0.01086
-0.09747
0.19665
-0.03163
-0.00104
-0.00179
-0.20753
-0.05545
0.03956
0.00270
-0.09899
0.03990
0.11226
-0.00484
0.08828
0.03393
-0.08226
-0.06635
-0.15869
0.03127
0.10128
0.15291
-0.21102
-0.04827
0.00511
0.07137
-0.05604
-0.01136
0.00048
-0.09510
0.07960
-0.07991
0.16775
0.06459
0.00450
0.00879
0.13848
-0.05886
-0.16247
-0.00368
0.21100
-0.00143
-0.03800
-0.03880
0.06133
0.06534
-0.11805
-0.03061
0.00822
-0.10341
0.01827
0.13828
-0.00585
-0.00429
-0.20474
-0.17254
0.00315
-0.15782
0.03524
0.00261
0.04660
-0.02968
-0.18759
0.12730
0.00300
-0.00565
-0.12828
-0.16649
-0.00811
0.06626
0.33018
-0.00835
0.00529
-0.02531
0.36557
-0.03679
-0.05362
-0.03783
-0.18216
0.08896
0.00818
-0.10796
0.01664
0.11946
-0.09924
0.00954
-0.04924
-0.00522
0.17879
-0.01779
-0.02802
-0.11849
0.20160
0.09490
0.04184
-0.18993
0.08047
0.00573
-0.07400
-0.06929
-0.10637
0.19043
0.28437
-0.05135
0.17788
-0.08781
-0.01729
-0.01894
-0.05938
-0.00152
-0.10321
0.11802
-0.09945
-0.02615
-0.02513
-0.13125
-0.06695
0.00025
0.02039
-0.02000
-0.06937
-0.04770
0.01393
0.06433
-0.12022
0.00095
0.27409
0.03820
-0.19197
0.03066
-0.01677
-0.02106
0.02214
-0.15101
0.14804
-0.11658
0.01087
0.02701
0.17131
-0.12452
0.07582
-0.11310
-0.09515
-0.03154
-0.01388
0.03978
-0.00031
0.26132
0.02152
0.01742
0.18689
-0.00795
0.09569
0.01498
-0.09069
-0.03794
-0.03145
-0.00094
0.14077
-0.11603
-0.10864
0.01130
-0.00025
-0.03345
-0.06798
0.10010
-0.04943
0.00520
-0.07455
-0.05913
-0.03361
0.14274
-0.02269
0.09503
0.12617
-0.11725
0.13755
0.06972
0.03266
-0.07735
0.00847
0.08783
0.11671
-0.05089
0.23316
0.00580
-0.08671
0.08645
-0.04235
0.01029
-0.05224
-0.01515
0.08002
0.07687
0.12738
0.18864
0.03115
0.06105
0.02099
0.10541
0.02884
-0.14610
-0.01691
0.10369
0.00268
-0.11900
0.14865
-0.00426
-0.00264
0.00427
-0.12972
-0.01533
0.12120
-0.15925
-0.01758
0.02476
-0.01262
-0.00622
0.02903
0.06642
-0.08654
0.08926
-0.02204
0.09853
0.02907
0.00910
0.03078
-0.00321
-0.00921
-0.00100
-0.07667
-0.10603
-0.08049
-0.04846
-0.04534
-0.03670
-0.03690
0.05971
-0.07058
-0.04672
0.00365
0.08495
-0.07346
0.04713
-0.10444
-0.00730
-0.01410
0.08810
-0.00102
-0.02985
0.17859
-0.03195
-0.08148
-0.08880
0.00768
-0.01099
0.16743
-0.01332
0.07802
0.14170
0.11226
0.03808
-0.18995
-0.05029
0.10304
0.04367
-0.05793
-0.03043
0.14193
0.13188
-0.01238
0.06505
-0.01024
-0.03853
0.00000
-0.02163
-0.18018
-0.11555
-0.07080
0.13925
0.23017
-0.00572
-0.00245
-0.21292
-0.00463
-0.02841
-0.19450
0.21238
0.18333
-0.02430
0.36802
0.19143
0.00892
-0.06398
0.00322
-0.16152
-0.03317
-0.01615
0.10664
-0.01862
-0.03671
0.08323
-0.03512
0.04065
-0.14887
-0.04383
0.14569
0.17088
0.13690
-0.04779
0.28367
-0.14886
-0.22787
0.02231
0.06405
-0.03275
-0.11997
-0.02247
-0.02112
-0.16146
0.03065
-0.10204
-0.09169
-0.08531
-0.08268
0.01898
0.04488
-0.03178
0.13764
-0.02155
-0.02671
-0.03847
0.10672
0.01568
-0.00332
0.04751
0.03921
-0.13812
0.02255
0.07290
0.14407
0.02327
0.02301
0.02859
-0.14209
-0.11060
-0.02321
-0.14416
-0.00178
-0.01393
0.09097
0.00513
0.18129
0.17251
0.06940
-0.10766
-0.02096
0.19981
0.00018
0.04014
0.01431
0.10564
0.10080
-0.00938
-0.08961
-0.02686
0.10973
0.05891
-0.14643
0.03774
-0.10153
-0.09677
0.26343
-0.07587
0.04458
-0.13028
0.05368
-0.12575
-0.00645
0.02138
-0.06752
-0.12274
0.03330
0.08957
0.04052
0.04908
0.02939
-0.10252
-0.03174
-0.07514
0.09288
0.11774
-0.07104
0.04365
-0.10728
-0.04377
0.11567
-0.01615
0.09862
-0.00798
-0.17936
0.05419
-0.25189
0.16557
-0.00995
0.13616
0.11535
0.15811
0.19160
0.00181
0.03466
-0.01145
0.02654
0.10119
-0.01891
-0.05595
0.06364
-0.15106
-0.01071
-0.06039
0.17299
0.03889
-0.02724
0.25034
-0.01655
0.09143
-0.05458
-0.17267
-0.03816
-0.02804
-0.10159
0.17719
-0.00754
-0.04893
-0.03655
-0.03080
0.21910
-0.10034
0.29611
0.09730
0.00527
0.08121
-0.02624
0.01104
-0.13562
0.01255
0.12949
-0.00660
0.05471
-0.04260
0.13356
-0.12173
0.04848
0.06815
0.11393
0.06858
-0.06812
-0.23463
-0.00343
-0.03185
0.18803
0.15045
-0.00986
-0.01070
0.01609
-0.16001
-0.12195
-0.08318
-0.07797
0.19056
-0.01232
-0.04782
-0.17095
-0.12584
-0.10800
0.04257
0.19535
-0.04647
-0.08227
0.20927
0.08987
0.12876
-0.07092
0.09299
0.00592
0.00548
-0.05875
0.13953
-0.06962
-0.04326
0.01123
-0.11907
-0.01200
0.17925
-0.02819
0.10272
-0.00330
0.00073
0.05991
-0.06734
0.02492
-0.03818
-0.01531
-0.17704
0.01277
0.09127
0.03859
0.17974
-0.07606
0.00667
-0.14825
0.01393
0.00404
0.01285
-0.06000
-0.01722
-0.05198
0.07277
-0.01488
0.01479
-0.07911
0.02228
0.12098
0.08194
-0.19338
-0.00721
0.11718
0.00278
0.02761
0.01969
0.20852
0.22090
0.19496
-0.10698
0.08173
-0.00786
0.08206
-0.05366
-0.00667
0.24192
-0.01084
-0.20338
0.25847
-0.14977
0.17544
0.02805
0.01634
0.27192
0.02883
0.08080
0.15694
0.02602
0.13254
-0.05542
0.18919
0.17513
-0.15531
-0.01370
-0.11713
-0.09535
-0.01188
0.11154
0.06215
-0.02158
0.09793
-0.11939
-0.03464
-0.17476
-0.06597
0.11329
0.06991
-0.17575
-0.05843
0.06375
-0.05193
-0.02499
0.03126
0.00183
0.11981
-0.08668
-0.16237
-0.02228
-0.03731
0.16778
0.08731
-0.05253
-0.14193
0.17170
-0.05819
0.31942
-0.10743
0.00438
0.00959
-0.03458
-0.17834
-0.10671
-0.13317
-0.12530
0.15901
-0.12838
-0.01079
0.00071
-0.03928
0.03765
-0.04804
-0.18813
0.00422
-0.05476
0.11984
-0.03409
-0.17255
-0.01726
-0.08777
-0.11347
-0.00860
0.16846
-0.02308
0.09545
0.02010
-0.10687
0.09867
-0.11227
-0.02070
-0.08500
0.07180
-0.05354
0.00306
-0.09718
0.06787
-0.01909
0.03357
-0.00610
0.14758
-0.02383
0.07664
0.00343
0.14054
0.01173
-0.00684
-0.03236
0.00711
-0.05182
0.05287
-0.08213
-0.16261
0.03273
0.05262
-0.07806
-0.07949
-0.11984
0.23967
0.00900
0.20370
-0.17867
0.26096
-0.07659
-0.03381
-0.17188
0.01669
-0.01988
-0.07130
0.09433
0.00534
-0.13310
0.07670
0.00000
-0.05519
0.06535
0.10909
-0.03389
-0.17072
-0.21002
0.00115
0.03486
-0.05747
-0.03379
0.22160
0.14409
0.07682
0.16632
-0.01076
0.08321
-0.06744
-0.11198
-0.07018
-0.12718
-0.11087
0.08527
0.04618
0.16034
-0.00597
-0.03264
-0.10664
0.15456
0.00393
-0.05596
0.11292
0.01248
-0.18740
0.04615
-0.02123
0.11292
-0.04205
-0.07826
-0.08950
0.04626
0.01992
-0.02208
0.01325
0.00757
0.08852
-0.08401
-0.18933
0.03895
0.06136
-0.04050
-0.10109
0.09990
0.02031
0.14240
-0.06118
0.07241
-0.21178
-0.01328
-0.08183
0.15841
0.02268
0.02689
0.01853
0.06363
-0.13798
-0.02894
0.12417
0.01891
-0.09836
-0.02942
-0.00342
-0.01314
-0.16805
-0.15442
0.07409
0.16376
0.00001
0.11584
0.09306
0.02452
0.09784
-0.01315
-0.02337
0.18264
0.01417
0.01028
-0.01183
-0.04579
0.05607
0.04250
0.17475
0.13222
-0.05260
0.18498
0.03927
0.17737
-0.06730
0.08072
-0.01923
0.14552
0.08591
0.05299
0.02924
0.07576
-0.01318
0.04294
-0.00366
-0.01260
-0.01765
0.25152
-0.02573
0.12333
-0.02288
-0.04896
-0.14447
-0.06754
-0.21775
-0.04046
-0.00358
-0.01743
-0.06539
-0.05316
-0.01507
0.03048
0.00915
0.07439
-0.11768
-0.00480
-0.01603
0.11285
-0.17389
0.03431
-0.04969
0.03780
-0.08109
-0.06176
-0.04639
-0.03650
0.01947
-0.09387
0.12691
0.01441
-0.02292
-0.01223
-0.06915
-0.13888
-0.01480
0.01980
0.02806
-0.16624
0.18974
-0.11399
0.03260
-0.01047
-0.22583
0.07181
0.00313
-0.12281
0.00555
0.03172
-0.02643
-0.05209
0.27130
0.03688
-0.21341
0.02623
0.00702
0.09548
-0.05958
0.00206
-0.05043
-0.01986
0.00427
0.01732
-0.12398
0.10518
0.02020
-0.12803
0.13134
-0.17820
0.01003
0.15679
-0.06365
-0.06496
-0.00022
0.06716
-0.09321
-0.02961
-0.01468
-0.03992
0.10164
-0.17033
0.11528
-0.02802
-0.01596
0.12174
0.06537
-0.03850
0.16444
-0.02107
-0.03491
-0.16208
0.00968
-0.09095
-0.00189
0.05760
-0.11475
-0.14339
0.10012
0.09385
-0.23008
-0.04944
-0.14494
0.10211
0.09020
0.07584
-0.09586
0.13889
0.06860
0.00656
0.04185
0.20983
0.01607
-0.01043
-0.07253
0.04480
-0.00199
-0.07024
0.19445
-0.16421
-0.00923
0.03369
-0.00997
-0.01152
-0.16404
0.09875
-0.16496
-0.22388
-0.01044
0.01814
0.00783
0.06511
-0.03129
-0.01167
0.00040
0.11580
-0.04182
0.04127
0.00497
-0.11349
0.01801
-0.18735
-0.12997
0.00636
0.11174
0.01899
0.01135
-0.01948
-0.04875
-0.09264
0.19029
0.00727
-0.06420
-0.00835
0.08135
0.00525
0.07975
-0.01984
-0.02795
-0.17093
0.00694
0.06709
-0.05136
-0.04571
0.07327
-0.02637
0.07309
-0.01487
-0.04615
-0.00305
-0.22726
0.00422
0.16351
0.03608
-0.08656
0.01562
0.07632
-0.09877
0.16444
0.11714
0.05066
0.06609
-0.10493
-0.18129
-0.13006
0.01963
-0.15132
-0.00249
0.15914
-0.04536
-0.02029
0.05450
0.01506
0.00027
0.03076
-0.02261
0.09263
0.08196
0.03918
-0.20577
-0.18711
0.04896
-0.06221
-0.12091
0.23456
-0.08268
-0.05311
-0.02680
-0.00267
-0.04929
-0.06449
0.04271
-0.07017
-0.22551
-0.04665
0.01993
0.03936
0.23035
-0.13925
0.15156
0.16104
0.26163
-0.05286
-0.09215
0.02464
0.10634
-0.10149
0.10743
0.07685
-0.07867
0.13459
-0.00320
-0.01484
0.02673
-0.12392
-0.05946
0.01681
0.00341
0.01796
-0.05704
-0.01068
-0.21251
0.03828
-0.03285
-0.04983
-0.03189
0.12413
0.19481
-0.16010
-0.01239
0.04927
-0.17341
-0.00040
-0.00786
0.18787
-0.05102
-0.08749
-0.04182
-0.00150
0.09293
0.11745
-0.12114
0.06941
-0.03068
-0.00612
0.42946
0.14894
0.15617
0.05528
-0.11504
0.13068
-0.08493
0.01398
-0.03383
0.13410
-0.01151
0.18971
-0.09610
-0.15585
0.00967
0.24502
0.09930
0.00343
-0.02328
-0.07135
-0.08466
0.11859
0.17587
0.18161
-0.02557
-0.04412
-0.02902
-0.03025
-0.10788
-0.08821
-0.10239
-0.01605
0.03075
-0.00369
-0.18844
-0.10799
0.20888
-0.16498
-0.23941
-0.09581
-0.08014
0.12210
-0.10790
0.08211
0.14088
0.02690
0.00871
0.00193
-0.00717
0.07153
-0.12981
0.00512
-0.02180
-0.11541
0.00740
-0.07699
-0.06800
0.02059
0.12625
0.20410
-0.01264
0.03448
-0.00809
-0.00867
0.20007
-0.07999
0.17254
0.06554
-0.02721
-0.01737
-0.01653
-0.11847
-0.04038
-0.06135
0.15553
-0.03114
-0.04480
0.05464
0.12316
-0.02971
-0.00323
-0.00179
0.02475
-0.19893
-0.06540
-0.05356
-0.07378
0.07718
-0.04937
0.00997
0.06188
0.01843
0.04636
0.07558
0.11091
0.01212
0.19249
0.05380
0.05366
0.18341
-0.12541
0.00715
-0.02652
-0.01086
0.05316
-0.02126
-0.13223
-0.04787
-0.00493
-0.15320
-0.02465
0.07387
-0.00179
-0.02607
-0.00021
-0.00348
-0.07724
0.10707
-0.00967
0.01475
-0.00264
-0.03419
-0.01155
0.00348
-0.03308
0.04208
-0.06790
0.21885
-0.03092
0.00102
0.08379
0.03132
-0.00311
0.01464
0.06212
-0.12593
-0.02268
0.01073
-0.07131
0.00574
0.01201
-0.21466
-0.04380
0.14142
-0.05363
0.11434
0.01904
-0.05939
-0.06256
-0.13454
-0.00435
0.07585
0.10372
-0.06506
-0.01681
0.17977
0.13763
-0.03333
0.05060
0.05442
-0.10026
0.15393
0.10952
0.11927
0.04104
-0.20497
-0.10079
0.06201
0.17643
0.07871
-0.05343
0.02329
-0.04668
0.06159
-0.02040
-0.15909
-0.08315
-0.10326
0.07052
0.10143
0.19054
-0.03576
0.02499
-0.14268
0.01431
-0.00504
0.16098
-0.16762
0.00151
-0.02663
0.01448
-0.02063
0.01437
0.13151
-0.02202
0.12085
-0.01911
0.05082
0.06304
-0.10000
-0.00483
0.04957
-0.02670
-0.02004
-0.00528
0.18359
-0.11744
0.17323
-0.00106
0.10563
0.07326
0.03313
0.02513
0.00402
-0.07188
0.05929
0.04208
0.06344
0.08574
0.03446
0.14305
0.17667
-0.15297
0.01387
0.04779
0.08163
0.02745
-0.07216
-0.00149
-0.05502
-0.07667
-0.07446
0.08280
-0.07615
0.03120
0.02568
-0.01419
0.00442
0.01070
0.02117
0.00909
0.00340
0.07946
-0.05060
-0.01455
0.14561
0.09646
-0.05555
-0.08168
0.28382
-0.02439
-0.02940
-0.14387
-0.06649
-0.03846
-0.01452
0.24322
0.14125
0.01294
0.21887
-0.07196
0.01164
-0.17400
0.06319
-0.01137
0.00034
0.13661
-0.00370
-0.03747
-0.07364
-0.12598
-0.08926
-0.00684
-0.11509
0.18401
-0.09064
-0.02514
-0.01311
-0.14675
-0.00131
0.08043
-0.07505
0.17633
-0.03524
0.23513
0.04123
0.16484
0.06913
-0.13355
-0.00102
-0.00529
-0.01840
0.00408
-0.04263
0.13062
0.08418
0.01719
0.06034
-0.01003
-0.05574
-0.02264
-0.00234
-0.15063
-0.11292
0.03273
-0.03950
-0.01560
-0.11998
-0.01399
-0.08154
0.05921
-0.05074
0.04083
-0.02759
-0.01631
-0.01773
-0.02726
-0.00125
-0.02964
0.14615
-0.06150
-0.10128
-0.22216
-0.23275
-0.18939
0.00715
-0.05105
0.21155
-0.11559
0.09912
0.19699
-0.00231
0.08427
-0.03293
-0.08139
0.03106
-0.10313
-0.17194
0.20502
0.03765
0.14322
-0.00025
-0.03643
-0.07250
0.17846
0.24650
-0.04248
-0.05337
0.11930
0.02167
-0.01124
0.06063
-0.18909
0.04085
0.02492
0.11092
-0.17397
-0.13138
0.11662
-0.01867
-0.16601
-0.04997
0.22837
-0.10721
0.03041
-0.06712
-0.03116
-0.23175
-0.01821
-0.01407
0.15670
-0.04795
-0.13537
0.18039
-0.12680
-0.10917
-0.01398
-0.12342
0.10949
0.01165
0.14928
0.14227
-0.10719
-0.01801
-0.04873
-0.06715
-0.08751
-0.05760
-0.17061
0.05487
0.11854
-0.06771
0.11192
0.07428
-0.02783
0.00824
-0.06685
0.13412
-0.05860
-0.09165
-0.04067
0.03679
0.06655
0.02329
0.03485
0.10210
0.00987
-0.21468
0.06277
0.02918
0.08095
0.02633
-0.08447
-0.09849
-0.08290
0.02803
-0.15006
0.16106
-0.04725
0.12097
-0.12839
0.08661
-0.07564
0.10012
-0.11280
-0.00298
-0.01419
0.03717
0.05819
0.00191
-0.03888
0.18614
0.14771
0.21109
0.18626
0.15009
0.04109
0.04237
0.10285
0.22798
-0.11034
0.00982
0.09083
-0.07523
-0.12536
-0.00497
0.00439
-0.05695
0.10990
-0.16907
0.00422
0.01307
0.21291
-0.02441
-0.03791
-0.13999
0.05340
0.11505
-0.01009
0.08384
0.00915
-0.12534
-0.01510
-0.03118
-0.16087
-0.12605
0.16779
-0.07174
0.14536
0.10193
-0.08543
0.05588
-0.07544
-0.05239
-0.16981
0.16611
0.05684
0.05703
0.05012
-0.08623
-0.01766
0.06256
0.17017
-0.02153
-0.07643
0.20500
0.14382
-0.07159
-0.09032
-0.02532
-0.04994
-0.08490
-0.05736
0.05950
0.00311
0.01943
-0.00171
-0.00044
-0.02422
0.00911
-0.01992
-0.00731
-0.01534
-0.08051
-0.04487
0.12516
0.00869
-0.09173
-0.02684
0.25081
-0.00895
-0.09407
-0.02152
-0.10487
0.12876
-0.00715
-0.02797
-0.05475
-0.00649
0.07861
0.14001
-0.07432
0.02082
0.00882
-0.04316
-0.05406
-0.00295
0.13670
0.01608
-0.01582
-0.05558
0.10148
0.14094
0.20185
-0.10083
0.24157
-0.05166
0.04779
-0.12678
0.00517
-0.07008
0.08972
0.06982
0.09233
0.04145
-0.04891
0.02195
0.09834
0.03221
-0.01208
0.06877
-0.02132
-0.08236
-0.03255
-0.10948
-0.05196
-0.06649
0.05828
-0.06581
0.00578
-0.18731
-0.10974
0.08053
-0.08527
-0.06939
-0.02994
-0.13383
0.10794
0.10258
0.16134
0.08482
-0.05216
-0.02151
-0.15560
0.02541
0.01621
-0.02981
0.05838
-0.05517
-0.02979
0.14719
0.14296
0.04142
-0.05551
0.00892
-0.02895
-0.09314
-0.04702
-0.02136
-0.02936
-0.00275
-0.06333
-0.03938
-0.07165
-0.04828
0.03263
-0.02837
-0.01878
-0.16652
0.03931
-0.06432
0.08511
-0.01664
-0.03780
0.08685
-0.08844
0.01675
-0.03705
-0.19506
-0.06284
0.15138
-0.07661
-0.03274
-0.01183
0.00023
0.08627
-0.00289
-0.05629
-0.06377
-0.04090
-0.02651
-0.06923
-0.01200
0.00230
0.06668
-0.08886
0.02110
-0.06646
-0.02940
-0.11685
-0.06399
0.15150
-0.10913
0.03260
-0.01311
0.06453
-0.14027
-0.07818
-0.15992
-0.04350
0.15010
0.18542
0.07394
0.11284
-0.19197
-0.03761
-0.22755
0.10218
0.02379
-0.02514
-0.03266
-0.06039
0.29864
-0.05824
-0.10113
0.00699
-0.16261
-0.16114
-0.10331
-0.07025
0.13594
-0.07267
0.01915
-0.03456
-0.13651
-0.02225
-0.04339
-0.04342
0.11961
0.07139
-0.14633
-0.00666
-0.07203
0.01175
0.02808
-0.00432
0.16363
-0.01217
0.04986
-0.07230
-0.11088
-0.20268
0.00071
0.03505
-0.09119
0.05811
-0.13147
0.07947
-0.01323
-0.02133
-0.06432
0.01007
0.01547
0.04412
-0.06815
-0.13547
-0.04880
0.02827
-0.06846
0.09620
-0.02112
-0.21368
-0.03401
-0.01813
-0.10888
-0.05420
0.08981
0.21884
0.17477
-0.07668
0.16344
-0.03015
0.02942
0.24544
-0.11362
0.01324
0.09227
0.04681
-0.01143
-0.01321
-0.03028
0.11675
-0.01961
-0.03291
-0.03676
-0.03961
0.03959
-0.09342
-0.02665
-0.00661
0.00059
0.00698
-0.03073
-0.02420
-0.06596
-0.02067
0.04652
0.10195
0.27783
0.04868
-0.09099
0.18429
0.00002
-0.07136
0.21663
0.33840
-0.04020
-0.19275
-0.08208
0.09407
0.06187
0.00552
0.00665
-0.03287
0.00059
0.22424
0.08239
-0.02364
0.00769
-0.01516
-0.03923
0.03691
-0.06838
0.09381
0.09716
-0.17183
0.17143
-0.00896
0.01535
-0.03132
-0.02198
-0.05246
-0.03004
-0.00943
0.03179
-0.19237
-0.13377
-0.01334
0.10877
0.16336
-0.14143
-0.05303
-0.04560
-0.09197
-0.06199
-0.05244
0.11007
-0.09278
-0.06912
-0.07469
0.01551
0.00152
-0.17080
0.00288
-0.11948
-0.00571
-0.04151
-0.09263
-0.21408
0.24062
0.12460
-0.02846
-0.02931
-0.06392
0.04915
-0.03923
-0.09916
-0.16308
0.05526
-0.01740
-0.10595
-0.05692
0.02846
-0.07218
-0.01336
-0.02663
0.12640
-0.02747
-0.00825
-0.04809
0.07922
-0.07578
0.12978
0.02784
-0.02301
-0.09725
-0.00526
-0.06165
0.16450
0.00679
-0.07646
-0.04175
-0.08266
-0.01873
-0.12468
-0.00103
-0.06938
0.28012
0.02279
-0.10327
-0.07881
-0.13462
-0.00113
-0.00089
-0.08396
0.08107
-0.03987
0.18573
-0.01606
-0.04616
0.00309
0.07171
-0.00490
-0.00012
-0.18712
0.15276
-0.06193
-0.02413
-0.06622
-0.05201
-0.07330
-0.04453
-0.00549
0.06625
-0.14051
0.02290
0.03888
-0.12258
0.00908
-0.00932
-0.09839
0.00542
-0.03172
0.08462
0.08493
0.01312
-0.09233
0.09066
-0.14296
-0.02522
0.04260
-0.00019
-0.03468
-0.12938
0.14950
0.06036
0.02721
-0.01118
-0.09057
-0.01490
-0.05029
-0.07163
0.23590
-0.21187
0.01392
-0.06743
0.05697
0.00479
-0.01504
-0.13260
0.17297
0.03464
-0.05293
-0.05776
-0.07167
-0.10008
-0.04677
0.08164
-0.02920
0.10592
0.13754
-0.00023
-0.01157
-0.00456
-0.04043
0.16854
-0.12732
-0.07640
-0.22684
0.01663
-0.06041
-0.00191
0.06080
0.02907
0.00047
0.05824
-0.00328
-0.02007
-0.02430
0.06988
-0.00824
0.13667
0.09578
-0.10815
0.05258
-0.11125
-0.04326
-0.00902
-0.02186
0.10060
0.04190
0.02879
0.00445
-0.07090
-0.03734
0.02997
-0.00275
0.06179
-0.06987
0.13316
0.02472
0.14476
-0.00685
-0.01424
-0.02507
0.12075
0.06186
-0.16512
0.17481
-0.00287
0.23389
0.07158
0.15798
-0.01663
-0.06348
0.05425
-0.06974
-0.04706
0.01672
-0.05401
-0.08916
0.03571
-0.03425
-0.08143
-0.06018
-0.05529
0.20639
-0.14283
-0.05947
-0.15302
-0.01184
-0.02791
0.04790
-0.02002
0.15391
0.19028
-0.01939
0.17519
-0.09102
-0.02111
-0.04688
0.13579
0.01715
0.06835
0.16246
0.04256
-0.01867
-0.01321
0.22951
-0.00480
-0.08431
-0.00689
-0.11559
0.04636
-0.10792
-0.18265
-0.00161
-0.07344
-0.03715
0.08313
0.11533
-0.01334
-0.00587
0.00268
-0.01826
0.10331
-0.08837
0.03765
-0.05082
0.01714
-0.02679
0.04087
0.05982
-0.08356
-0.02926
0.18095
-0.00424
-0.10612
-0.13078
-0.10520
-0.08378
-0.00895
0.18888
0.02710
-0.00333
0.00541
0.00041
-0.04600
-0.07379
-0.11429
-0.12616
0.00642
-0.00968
-0.15612
0.21985
0.13325
-0.14362
-0.10518
-0.00774
-0.02601
-0.01033
-0.01982
-0.02000
-0.00342
0.16476
0.14692
-0.02907
-0.04980
0.17806
-0.02344
-0.02132
0.03139
0.03907
-0.16866
-0.02830
-0.06260
-0.03800
-0.04525
-0.10893
-0.00938
-0.05080
-0.05051
-0.01282
-0.08015
0.01367
0.00785
0.16001
-0.07063
-0.00253
0.13569
-0.00221
-0.12075
-0.06510
0.08306
0.06865
-0.06189
-0.10259
-0.07776
-0.02437
0.21257
-0.05771
-0.03126
-0.01708
-0.07328
-0.00334
-0.03018
-0.03201
-0.10398
0.11561
0.03620
-0.11622
0.13911
0.11285
-0.02588
-0.02950
-0.03200
-0.06940
-0.08794
-0.03333
0.07480
-0.06053
-0.17202
-0.08878
-0.01969
-0.08063
-0.00158
-0.05062
-0.08217
-0.12809
0.04423
-0.01849
0.02213
-0.11956
-0.04740
-0.10452
-0.07549
0.02958
0.09849
-0.12618
-0.03943
0.09937
-0.00534
-0.00943
-0.12414
-0.02712
-0.11736
-0.00642
-0.01988
-0.02130
-0.03430
-0.06176
-0.05456
0.07726
-0.04245
-0.00444
-0.05809
0.18358
0.13660
-0.13823
0.13770
-0.03792
0.14396
-0.03096
-0.00018
-0.08479
-0.02591
-0.00668
0.02607
0.14562
-0.02710
0.07600
0.01924
-0.09336
0.04169
-0.00815
-0.15675
0.02565
-0.02425
-0.04438
-0.04325
0.02269
-0.06544
0.07318
0.08862
0.00627
0.09982
0.12331
0.26436
0.18381
-0.14800
0.02958
0.14831
0.15012
-0.11279
0.13173
-0.08699
0.02104
-0.10720
0.15599
0.15531
0.15792
0.01776
-0.08229
-0.19590
0.17688
-0.00874
-0.00529
-0.10189
-0.01876
-0.06295
0.05230
0.13335
-0.06435
-0.05198
-0.09464
-0.02044
-0.04959
-0.00790
-0.00473
0.01953
0.11019
-0.01561
-0.07171
0.15701
0.02072
-0.01061
-0.01083
-0.04037
0.00348
-0.18576
0.05468
-0.02284
-0.02624
0.06549
-0.02359
0.02242
-0.10998
-0.10192
0.03108
-0.14530
0.03656
-0.14774
-0.00686
-0.10125
-0.08167
-0.01147
0.01248
-0.06140
-0.03846
0.11353
-0.08688
0.10792
-0.21877
0.07219
-0.07509
-0.13445
-0.03474
-0.01285
0.11862
0.06951
-0.08548
-0.06632
0.22377
-0.00291
-0.08329
-0.04192
-0.02802
0.00885
-0.01582
0.03377
-0.01316
-0.00599
-0.00658
-0.04551
-0.01901
0.06715
0.13989
0.03374
-0.07242
0.07869
-0.07304
0.16903
0.15675
-0.02097
0.18915
-0.14945
-0.12369
0.02218
-0.23970
-0.01586
-0.00640
-0.01445
-0.00339
0.14932
-0.17542
0.18211
0.05696
0.02518
-0.01163
-0.00200
0.08776
-0.01930
-0.01992
0.27001
-0.01346
0.13605
-0.01213
-0.09103
0.07784
0.03348
-0.04147
0.00681
0.05229
-0.02322
-0.03001
-0.17604
-0.09371
-0.03304
-0.08631
0.00878
0.00402
0.15587
0.23041
-0.07486
-0.11123
-0.07435
-0.04104
0.00981
0.00221
-0.07915
-0.08258
0.14543
-0.02129
-0.01277
-0.00307
0.01398
-0.00119
-0.03007
0.04533
-0.08128
0.04219
-0.16708
0.02875
0.08163
-0.02810
0.01662
0.04137
0.07469
0.19187
0.01642
-0.03952
0.00705
-0.00722
-0.07685
-0.00782
0.14684
-0.10002
-0.00956
-0.09761
-0.09981
0.05431
0.06394
-0.08678
-0.06765
-0.09208
0.00561
-0.02863
0.03558
-0.03779
0.11746
-0.08473
-0.03365
0.03571
-0.03145
0.00230
-0.00566
-0.01988
0.03481
-0.21519
-0.16910
-0.03971
0.03863
-0.03884
-0.01443
-0.04462
-0.11325
-0.09767
-0.11516
-0.01190
-0.12000
0.20159
0.05993
0.10485
0.12847
-0.00834
0.04396
0.09087
-0.03108
0.04184
-0.14503
0.12318
0.00036
0.13349
-0.02983
0.06840
-0.07110
-0.00001
0.09354
-0.01484
-0.02276
0.23645
-0.03888
-0.06817
-0.05315
-0.08600
-0.01842
-0.14454
-0.02192
0.08283
0.37349
-0.13011
-0.06924
0.24618
-0.09183
0.22145
0.05832
-0.04201
-0.05569
-0.01267
-0.06241
-0.07507
-0.12527
0.01281
-0.13569
0.26154
0.00211
-0.08269
0.12590
-0.02095
-0.05905
-0.09595
0.16862
-0.03856
0.04393
0.04062
0.06658
-0.07434
0.34510
-0.10516
-0.00708
-0.05941
-0.01388
-0.07862
0.05559
-0.11359
-0.07112
0.04759
-0.00969
-0.01831
-0.00728
-0.05549
0.12298
0.04140
0.05883
-0.03023
-0.06960
-0.00843
-0.02283
-0.01877
-0.12702
0.04166
0.01432
-0.23666
0.00596
-0.15621
-0.00574
-0.03288
-0.04407
0.09378
-0.00556
-0.00109
-0.07413
-0.15452
0.07292
0.02760
0.01282
-0.12567
-0.08743
-0.04325
0.14753
0.06645
-0.08136
-0.05530
0.09720
0.05791
-0.06620
-0.08855
0.18603
0.11536
0.15886
0.07290
-0.03123
-0.08988
0.00053
0.20374
-0.00934
0.04513
0.02458
-0.07091
-0.15873
-0.10314
-0.03508
0.12624
0.16334
0.09364
-0.10722
-0.12450
-0.03357
-0.11809
-0.19733
-0.02034
-0.13554
0.10894
-0.02307
-0.10805
-0.09162
0.03753
-0.15399
-0.00097
0.00478
0.04779
0.01441
0.00207
-0.09343
-0.03537
0.01287
0.01372
0.16948
0.02248
-0.10243
-0.09023
0.13622
-0.00872
0.03604
0.02614
-0.03114
0.01722
-0.00372
-0.06618
-0.07789
-0.00693
-0.06208
-0.00109
0.17785
-0.00357
-0.09386
-0.02306
0.06129
-0.00439
-0.05297
0.26371
-0.04522
-0.04419
-0.17355
0.21643
-0.00427
-0.18721
-0.05856
-0.10269
0.06758
0.07451
0.15164
0.15424
-0.05175
0.06142
-0.09204
-0.00513
-0.09379
-0.07684
0.04778
0.01009
-0.10831
-0.15339
0.01070
-0.16266
0.06770
-0.09102
-0.04350
-0.05915
-0.21041
-0.15440
-0.10028
0.16137
-0.08218
0.19301
0.09822
-0.07557
0.26698
-0.01567
0.01823
0.18245
-0.01776
-0.04237
0.06745
-0.05167
-0.10885
-0.12819
0.15431
0.00165
-0.10419
0.01070
0.15759
0.06659
-0.09917
-0.14937
0.09268
0.08682
-0.00214
-0.01229
-0.05275
-0.03258
-0.01006
-0.13870
-0.01463
0.11444
-0.08568
0.05221
-0.01530
0.16844
-0.10576
-0.21757
-0.00439
-0.16092
0.11197
0.01541
0.00937
-0.02536
-0.11555
0.13282
-0.02618
0.01607
0.10009
0.05803
0.00378
-0.15963
-0.07223
0.02053
-0.00019
-0.00446
-0.01812
-0.09884
0.05291
-0.05854
0.00186
-0.09801
0.29226
-0.03008
0.00636
0.42443
0.21848
0.08965
0.00483
0.01608
0.12459
-0.03524
-0.13000
-0.06846
0.09691
-0.00272
-0.09407
-0.05180
-0.09250
0.13383
0.00262
0.09495
-0.12291
-0.02103
-0.12475
-0.01119
0.05348
-0.13986
-0.05796
0.00582
0.21525
-0.09203
0.07367
0.01855
-0.04535
-0.06806
-0.00160
0.09813
-0.07170
-0.06281
-0.03775
-0.14912
-0.05698
-0.09018
0.00674
-0.05597
-0.07612
-0.14441
0.08601
-0.12481
-0.07162
-0.03916
-0.03270
-0.11108
-0.00985
-0.02969
0.00393
0.09454
-0.00887
-0.01689
-0.05607
-0.00916
0.04684
0.01118
0.00135
-0.08678
-0.05213
-0.10203
-0.02885
0.02852
0.00509
-0.03200
-0.00145
-0.04296
0.04933
0.02212
0.13520
0.22565
-0.11444
-0.00183
-0.01730
0.03145
0.15662
0.13954
-0.24043
-0.01278
0.06103
-0.02671
0.07511
0.20447
-0.01421
0.13510
0.09730
-0.03504
0.01857
0.21314
-0.06968
-0.08534
0.11896
-0.01343
0.00793
0.02161
-0.04754
-0.04773
0.01333
0.02877
-0.02184
0.05293
0.27644
0.23992
0.08717
0.00702
0.10115
-0.01502
-0.02877
0.02744
-0.05563
-0.06382
-0.16120
0.03182
0.12117
-0.00994
0.06563
0.05087
0.14878
-0.09853
-0.03713
-0.06750
0.12010
-0.09546
0.05196
0.05520
-0.02058
-0.03394
-0.04464
0.18623
0.05237
-0.05045
0.02119
0.09694
0.01924
-0.01979
0.14570
0.08430
-0.04068
-0.07087
0.00119
0.03392
0.00275
-0.01493
-0.02671
-0.01798
-0.02230
0.03712
0.00227
-0.07344
0.11729
0.09373
-0.02566
-0.10366
-0.04749
0.05534
0.03842
-0.05885
0.21934
-0.03686
0.07395
-0.05606
0.03778
-0.02862
0.08580
0.00514
-0.02293
0.18928
-0.02568
0.14043
-0.00300
0.04000
-0.08456
-0.11212
-0.02116
0.06771
0.00521
-0.01426
0.06284
-0.03954
-0.01208
-0.05354
0.05756
0.06029
-0.00188
0.08875
-0.01987
0.01213
-0.00053
-0.10372
0.13812
-0.12229
-0.09765
-0.08618
-0.00976
0.04383
0.14868
-0.05096
-0.04325
-0.05301
-0.10123
-0.07340
0.04188
0.04106
-0.01451
-0.02093
-0.03442
0.07958
-0.00334
0.18122
-0.01180
-0.03095
-0.03593
-0.08075
0.12528
0.16675
-0.18056
-0.00800
-0.02651
0.06984
-0.04157
-0.00444
-0.10083
0.01110
-0.00895
0.40173
-0.03395
-0.02178
-0.01154
-0.02678
0.06565
-0.13354
0.26546
0.05107
0.25576
-0.00517
0.08205
-0.08706
-0.01442
0.13471
-0.02063
0.10458
-0.01654
-0.05301
0.00940
-0.07075
-0.03183
0.01085
-0.07355
-0.01463
0.00726
-0.09519
-0.01051
-0.17397
-0.00462
0.01898
-0.01115
0.01798
-0.04516
0.13365
-0.11257
0.10320
-0.02465
-0.10528
0.01183
0.00364
0.02308
-0.07556
0.13729
-0.08144
-0.05165
0.00686
-0.02032
-0.00236
-0.00786
-0.15076
-0.04662
-0.01572
-0.13207
-0.04912
0.19692
0.09318
-0.11398
-0.07992
-0.04099
-0.11511
-0.02364
-0.00231
0.03412
-0.03008
0.00376
0.38767
-0.00002
-0.07643
-0.03410
-0.09348
-0.01494
-0.05413
-0.01065
-0.01109
-0.02671
0.00280
0.10255
0.01449
0.00670
0.00871
0.10246
0.02225
-0.03135
0.01106
-0.17483
0.08052
-0.05278
-0.09746
-0.07038
0.11941
-0.05740
-0.06998
-0.00095
0.01340
0.00834
-0.00276
0.11287
0.20573
-0.00989
-0.05495
0.00917
-0.00266
-0.07361
0.04509
0.14860
-0.00468
0.09897
-0.15154
-0.05283
-0.05402
0.01547
-0.10823
-0.07651
0.17830
-0.01365
0.27652
0.04186
-0.02168
0.08673
0.04627
0.00264
0.23115
-0.10264
0.05011
-0.01283
0.00818
-0.05153
-0.05686
-0.04576
-0.02123
0.05598
-0.08196
-0.02079
-0.06271
-0.05560
-0.06386
-0.15091
0.14196
0.09473
-0.05435
-0.05722
-0.06010
0.13369
-0.07539
-0.12326
0.06853
-0.02188
-0.10315
-0.00157
-0.15423
-0.00938
-0.05042
-0.12478
-0.04635
0.07020
-0.17013
-0.02364
0.04700
-0.06823
-0.04077
-0.00280
0.01093
0.01573
-0.03583
-0.14828
0.00624
-0.02776
-0.04042
-0.15750
0.03640
0.23330
-0.06813
0.42696
-0.06545
-0.08572
-0.09765
-0.11486
0.10991
0.08687
0.20636
-0.00749
-0.06821
0.00018
-0.00273
-0.23287
0.06031
0.05857
0.02182
0.17757
0.19302
-0.00217
-0.00664
0.04898
0.01548
-0.02557
-0.05222
0.18373
0.06278
0.03708
0.00059
0.06750
-0.03639
-0.04896
-0.02778
-0.13978
-0.07908
0.17396
-0.09046
-0.21741
0.11094
-0.06433
0.00253
-0.10355
-0.02415
0.16926
-0.01871
0.05055
-0.04756
0.04589
-0.02367
-0.10293
0.00746
-0.00430
0.25738
-0.01116
-0.09830
-0.12405
0.00130
-0.00017
0.17576
0.13445
0.06027
-0.02396
-0.02353
-0.13873
-0.01828
0.10747
0.13602
0.08156
-0.12600
-0.00822
-0.06618
-0.04672
-0.01657
-0.01725
0.05719
-0.00445
-0.03007
-0.05037
0.08980
-0.09923
-0.09805
-0.20584
-0.02835
0.14266
-0.12468
-0.05583
0.03923
-0.08214
-0.01486
0.10970
0.03289
0.03141
0.03984
-0.04119
0.00924
-0.04866
0.17033
-0.00900
0.05437
0.11641
-0.05521
-0.04390
-0.08085
0.00460
-0.00925
-0.03067
0.09705
-0.00603
0.01953
-0.02470
-0.00036
0.10538
-0.09913
-0.21380
0.02817
0.00575
-0.00017
-0.02536
0.02236
0.23201
0.03721
-0.05231
-0.02102
0.11252
-0.00068
0.14037
-0.13517
-0.06633
0.02149
-0.10521
-0.01677
0.00212
-0.14178
-0.05577
0.11039
-0.12065
-0.04331
0.12883
-0.08110
0.01861
0.01392
-0.08089
0.00568
0.03720
-0.05030
0.01021
-0.05231
0.08432
-0.01343
0.16650
-0.14441
-0.07301
0.00378
-0.06134
-0.07029
-0.07393
0.14987
0.12977
-0.02684
-0.06851
-0.14968
-0.03607
-0.16510
0.05964
-0.14738
-0.07221
0.25273
0.16700
-0.10220
0.03771
0.08568
0.00756
-0.17262
0.00707
0.01635
-0.02373
-0.03349
-0.06954
-0.11941
-0.01950
0.16768
-0.04517
-0.04009
0.00003
0.02607
-0.02414
0.02644
0.00373
-0.16054
-0.05125
-0.01897
-0.15613
-0.01189
-0.02894
-0.06025
0.07704
-0.00843
0.14845
-0.12005
0.00971
0.01447
0.00902
0.01632
-0.01403
0.18559
-0.07153
-0.12272
-0.12618
0.16898
-0.13387
0.00738
0.03667
0.03019
-0.03537
-0.00514
0.22214
-0.12634
0.01743
-0.09784
-0.05657
-0.21786
-0.03013
0.09611
-0.09250
0.13045
-0.00726
-0.07701
-0.02338
0.23778
-0.01260
-0.06089
-0.05638
0.00643
-0.01966
0.01412
0.03625
-0.02050
-0.00640
0.01469
0.00438
-0.00773
-0.01759
0.01535
0.07247
0.05746
0.15489
0.14816
0.15051
-0.07172
-0.15355
-0.17153
0.03967
0.04068
0.16107
-0.07058
-0.03320
0.05040
-0.00383
0.00493
-0.17361
-0.00824
0.10133
-0.08282
-0.00591
0.07787
-0.14377
0.01740
0.00472
-0.09846
-0.00935
-0.03146
-0.01484
-0.04583
-0.07086
-0.00316
0.14176
0.13013
0.15681
0.02500
0.01566
0.15811
0.00152
0.23113
-0.00823
-0.07870
-0.02417
0.22352
0.00162
-0.06907
0.18742
-0.07006
-0.16072
-0.02618
0.23551
0.12248
0.06127
0.02580
0.09383
-0.02204
-0.08201
0.02300
-0.06237
-0.01508
-0.00713
-0.02143
-0.04154
-0.02280
-0.05842
-0.06729
0.07759
0.02112
-0.00259
0.03036
-0.16072
-0.01888
-0.04411
-0.02327
-0.01961
0.02374
0.00966
0.05458
0.08179
-0.00924
0.00275
-0.07221
-0.09753
-0.13299
0.08981
-0.06527
-0.04354
0.01958
-0.00505
-0.02574
-0.00063
-0.02975
-0.03982
0.05848
-0.04017
-0.00848
0.07983
-0.08089
-0.03941
0.22165
0.00363
0.02081
-0.01216
0.23431
0.17673
-0.05125
0.03388
0.07797
-0.07698
-0.09532
-0.13766
0.04258
0.12240
-0.06885
0.01386
0.03596
0.09432
-0.09915
0.04341
-0.20348
-0.02626
-0.07695
0.02961
-0.08831
-0.12176
-0.05171
-0.09080
-0.07702
-0.00747
-0.10950
-0.07579
-0.07790
-0.01636
-0.06190
-0.02201
-0.08952
0.07662
-0.09183
0.10700
-0.10014
0.15515
-0.07885
-0.10037
-0.10648
-0.09329
-0.02426
0.08375
0.15191
0.32884
-0.20969
-0.01363
0.15930
-0.02213
-0.02899
-0.00629
-0.04043
-0.05928
-0.14386
-0.07586
0.07777
-0.00341
0.15828
0.08888
0.06801
-0.01789
0.10675
-0.04232
-0.00805
-0.03247
-0.01942
0.00643
0.30377
-0.13394
-0.06969
-0.01257
-0.00939
0.08560
0.09103
-0.09792
0.18332
-0.14195
0.09752
-0.00906
-0.03944
0.00217
-0.01937
-0.00768
0.13885
-0.15917
-0.01857
0.07410
-0.01600
-0.05764
-0.10135
-0.11882
-0.02999
-0.04349
0.06626
0.01659
0.14840
0.00341
-0.00716
-0.06045
0.07674
0.02481
-0.01302
-0.01306
0.05584
-0.03181
-0.01973
0.02182
0.15293
0.02091
-0.00860
-0.14641
-0.02429
-0.15444
0.24262
-0.01741
-0.00588
-0.09524
0.15104
-0.00256
-0.06040
-0.10076
-0.07988
-0.09630
-0.14259
-0.10249
-0.07412
-0.00574
0.00183
-0.03468
0.04432
-0.13232
0.15587
0.00349
0.08207
-0.08809
-0.05294
-0.08210
-0.01628
-0.04218
-0.11495
0.11496
-0.07709
0.17824
-0.09326
0.00719
-0.00162
0.07081
-0.14666
0.15307
-0.00857
0.00136
-0.10315
0.12305
-0.00662
0.27108
-0.00520
0.00624
-0.02698
0.03022
-0.03974
-0.04626
-0.06677
-0.15252
-0.00611
0.03903
0.00975
0.24403
-0.00176
-0.11879
-0.04119
-0.08622
-0.03696
-0.09929
-0.00260
0.06936
-0.01111
0.17819
-0.00720
-0.02246
0.07937
0.09271
-0.07004
-0.21263
0.03081
0.07628
-0.00191
-0.02884
0.13274
0.01679
-0.02521
-0.13541
-0.00266
-0.02485
-0.09139
-0.02139
0.00353
0.01867
0.05278
0.10548
0.08388
-0.01973
0.08839
0.02260
0.02002
0.03104
0.11616
-0.00944
0.04707
-0.07986
0.16341
0.10253
-0.04230
0.03345
0.05325
-0.04235
-0.11712
-0.18214
0.06052
0.08256
0.14015
-0.04017
-0.00706
-0.02515
-0.02708
0.12105
0.00898
0.01816
-0.05851
-0.03525
-0.04963
-0.07208
0.01256
-0.02511
-0.07417
0.17991
0.08204
-0.16229
-0.02268
-0.09028
0.00196
0.01343
0.01954
0.05652
0.19234
0.00874
-0.12033
-0.04195
-0.03924
0.08649
0.01323
0.17839
-0.09278
0.01147
-0.12591
-0.05742
0.05279
-0.07348
0.16625
-0.06200
-0.06109
-0.05978
0.10042
-0.00847
-0.08524
0.03330
-0.05199
-0.01464
-0.00511
0.01899
-0.00605
-0.04720
-0.02129
-0.05638
0.09353
-0.02090
0.14865
-0.02083
-0.04928
0.14753
0.00830
-0.01659
-0.02273
-0.08345
-0.03780
-0.10155
-0.11441
-0.09968
-0.05927
-0.01718
-0.00696
0.02089
0.15450
0.03671
-0.00815
0.07421
-0.13394
-0.08691
0.00785
-0.05533
-0.04189
0.01285
0.25867
-0.10321
0.00531
0.03602
0.10359
-0.14592
-0.01115
0.10771
0.07074
-0.00697
0.17761
-0.03547
-0.04047
-0.03135
0.06040
-0.02973
-0.06676
-0.00487
-0.01907
-0.10912
0.11898
-0.06212
-0.02318
0.10463
0.00513
0.03678
-0.07671
0.00196
0.01175
-0.07622
-0.21534
-0.02015
-0.11047
-0.08503
-0.01998
0.04043
-0.00953
0.08057
-0.04629
-0.24049
0.24271
0.11380
0.01886
-0.00979
0.03945
-0.02097
-0.05850
-0.01928
-0.09610
0.03101
-0.04022
-0.01182
-0.08195
-0.04685
0.16662
0.10746
-0.06535
-0.01584
0.07829
0.18881
0.02127
0.09037
-0.13656
0.07608
-0.13980
-0.02314
-0.00149
-0.08304
0.08735
0.05664
0.14261
0.03085
0.02831
-0.01040
0.02153
0.15165
-0.02124
0.04295
-0.02229
0.01250
-0.14787
-0.06832
-0.09946
-0.12553
-0.01417
0.02036
-0.19278
-0.04840
-0.00958
-0.05526
-0.00553
0.11298
-0.01174
-0.16507
-0.03025
0.00150
-0.05026
-0.06623
0.01612
0.05806
-0.04583
-0.05620
-0.10178
-0.05993
-0.01474
0.01605
0.21078
-0.05023
-0.26345
-0.06727
-0.12418
-0.00440
-0.03579
-0.02018
-0.00330
0.22071
-0.01430
0.08017
-0.07496
0.14339
-0.13189
0.01216
-0.00034
-0.08512
0.17513
-0.01256
0.00969
0.00429
0.07962
0.03460
-0.04906
0.01065
-0.19475
0.09211
-0.05369
0.04881
-0.05093
0.04209
-0.07307
-0.04436
-0.09790
-0.10619
0.07624
-0.19000
-0.00043
-0.03362
0.20070
-0.03796
0.11183
-0.01205
-0.06767
0.15424
0.08394
-0.12131
-0.12662
-0.04079
-0.01298
0.03366
-0.10142
0.01166
0.14732
-0.17419
-0.04802
-0.00464
0.01377
-0.08397
-0.00524
0.11553
-0.06627
-0.08359
-0.13281
0.12211
-0.00705
0.00319
0.15673
-0.10372
0.08479
0.21378
-0.02941
0.04611
-0.05048
-0.02271
-0.20787
-0.00446
0.03009
0.00614
-0.02913
0.03233
-0.08558
-0.05895
0.12711
0.06703
-0.07791
-0.02504
-0.12470
0.06485
-0.01553
-0.01569
-0.14051
-0.10395
0.00937
-0.01697
-0.01071
0.01544
-0.03768
-0.00840
0.00575
-0.00805
-0.05732
0.04984
0.17240
-0.09547
0.05451
0.10256
-0.01092
-0.14685
-0.05432
-0.03750
-0.07158
-0.00720
0.11017
0.04875
0.03488
0.00097
-0.02651
-0.00125
0.00132
-0.04660
0.09817
-0.01171
0.08904
-0.09508
0.18466
-0.01691
-0.00454
-0.00767
-0.00272
0.06295
-0.23088
-0.06740
0.17050
0.00546
-0.09193
0.01499
-0.04212
-0.04682
-0.13447
-0.02646
-0.03823
0.09333
-0.00907
-0.03428
-0.02057
0.00626
0.06118
0.00614
-0.01629
-0.01567
-0.01604
-0.05139
0.01096
-0.06517
-0.14012
-0.11039
-0.06160
-0.01482
0.00717
0.06915
-0.00019
-0.04140
0.01948
-0.10482
0.17906
-0.01146
0.01775
0.13389
0.05480
-0.03901
-0.01408
-0.15054
0.00638
-0.15821
-0.00206
-0.01834
-0.00441
0.03646
-0.05359
0.10829
0.00646
0.14231
-0.05202
-0.01931
-0.07339
-0.03102
0.02363
0.08386
0.05910
-0.00568
0.01794
0.03361
0.00136
-0.09035
0.15809
0.15563
-0.08254
-0.11276
0.00300
-0.00601
0.02226
-0.16222
0.05035
-0.14668
0.10673
0.17710
-0.15777
0.05660
-0.06334
-0.02926
0.12608
-0.00089
-0.16081
0.01861
-0.04913
0.06036
0.13831
-0.02371
0.13403
-0.15300
-0.06654
-0.03365
-0.11500
0.14425
-0.08819
-0.10537
-0.04859
0.00020
0.18786
-0.01203
-0.15749
0.21106
0.07614
-0.07978
0.25496
-0.14658
-0.12973
-0.04913
-0.07455
0.02047
0.12414
0.09564
-0.05739
-0.00965
-0.00434
0.00453
0.04617
-0.05424
0.03250
-0.06237
-0.05694
-0.12321
0.15953
0.03501
0.09585
0.12462
0.09796
0.00286
0.01347
-0.12799
0.33534
0.28732
0.00580
-0.01317
-0.04554
-0.09169
0.01618
-0.08580
-0.03346
-0.01507
-0.03532
-0.05924
0.08198
-0.13176
-0.04944
-0.17189
0.14998
0.01455
-0.07755
-0.15258
0.03662
-0.08116
0.02554
-0.01246
0.07341
-0.20925
0.00127
-0.01080
0.02749
-0.17851
-0.10083
-0.12337
0.14384
-0.12716
-0.01129
-0.00594
-0.04604
-0.05209
0.09070
0.03794
-0.03485
-0.02827
0.06816
-0.03314
-0.10953
0.25840
0.00364
0.19384
0.00374
0.17359
-0.04553
-0.03927
-0.01745
-0.03486
-0.01860
0.08008
-0.01430
-0.00880
-0.00198
-0.01487
-0.06231
-0.00583
-0.02945
0.09235
-0.00117
0.01809
0.08012
-0.07322
-0.02014
-0.15043
-0.10724
0.01184
0.03752
0.06275
-0.14076
-0.05244
-0.07728
0.06455
0.00324
0.02823
0.01839
0.18156
0.00710
-0.05161
-0.09048
0.12064
-0.04221
-0.02106
0.00959
0.07603
-0.06526
-0.05181
-0.12418
0.06564
0.05255
-0.07106
-0.02814
-0.08971
0.13469
0.01825
-0.04536
0.01270
0.00993
-0.16474
-0.04339
0.11837
-0.06807
-0.12053
-0.00893
-0.00444
-0.02237
0.07462
0.02138
-0.01159
-0.02551
0.07027
-0.11524
0.00567
-0.02900
-0.09153
-0.00966
0.20474
-0.00200
-0.02247
0.01622
-0.06995
-0.04794
-0.14538
0.04990
-0.11775
-0.01014
0.09975
0.02026
-0.05486
0.15842
0.01706
-0.02855
-0.08923
0.01838
0.00456
-0.08169
0.08193
-0.01292
-0.07258
-0.18111
-0.11030
-0.05770
0.00639
-0.04335
-0.15699
0.01664
-0.03684
0.16923
-0.07885
0.06105
-0.02608
-0.01282
-0.02274
0.07959
0.02265
-0.00316
-0.01445
-0.04620
-0.10951
-0.18304
-0.11364
-0.06699
-0.00007
-0.04815
0.01979
-0.06230
0.21801
-0.10720
-0.04257
-0.19806
-0.05465
-0.03189
-0.08698
0.09394
0.12473
-0.05966
-0.03125
0.00112
-0.01364
0.03945
-0.01397
-0.04087
-0.13712
-0.17793
0.06808
-0.13677
-0.05755
0.05703
-0.00822
-0.04985
0.00023
-0.07045
-0.05053
0.03064
-0.07545
-0.00969
-0.01268
-0.03238
-0.13919
-0.03049
-0.22087
-0.02347
0.20126
0.01430
-0.00018
0.00986
-0.07238
-0.06427
0.02288
-0.02729
-0.07402
-0.13940
0.03754
-0.02668
-0.05138
0.05730
0.01903
-0.01084
-0.03974
0.04877
0.12182
0.23829
-0.04521
0.04646
-0.00862
0.18657
0.00621
0.02945
0.01200
-0.05838
0.01180
-0.03477
-0.01519
-0.04605
-0.02038
0.02973
0.15605
0.08350
-0.01725
0.00447
-0.04359
0.02296
-0.01150
0.00331
-0.04638
-0.02587
-0.08002
-0.19043
-0.04499
-0.04460
0.02474
-0.04888
-0.14100
-0.13683
-0.05052
-0.04431
-0.04568
0.22348
0.31232
0.13426
0.00505
-0.11830
0.13595
0.04396
-0.06080
0.20145
0.15018
-0.09110
0.00050
0.01870
-0.00337
0.07044
0.01030
0.02830
-0.08772
-0.05511
-0.12474
0.00625
-0.11260
-0.03265
0.04521
-0.05763
0.02194
0.08861
-0.01562
-0.04372
0.02795
-0.08932
0.05471
-0.14403
0.03669
-0.08995
-0.21758
0.12544
-0.03095
-0.09944
-0.16110
-0.02134
-0.02433
-0.05021
-0.09691
-0.03242
-0.15403
-0.02060
-0.02929
0.00408
0.01444
0.20335
0.15904
0.04150
0.03280
-0.04116
0.16036
0.02760
0.01261
-0.00371
-0.01527
0.03427
-0.00947
0.14299
0.12308
0.01514
0.00036
-0.00859
-0.13797
0.08809
-0.07246
-0.05121
-0.08510
0.07118
-0.02948
0.22844
-0.05006
0.07322
-0.05407
0.00836
0.00077
-0.00193
-0.09021
0.10128
-0.16899
0.03861
0.13448
0.06272
-0.00821
-0.11638
-0.01341
-0.01601
-0.01196
-0.18382
-0.05763
-0.04110
0.04299
-0.02119
0.41280
-0.05023
0.04683
0.02081
-0.06105
-0.03459
-0.05633
0.09754
0.14204
-0.02884
-0.12305
0.04300
-0.03589
-0.17687
0.06447
-0.01597
0.15086
-0.04637
0.09636
-0.00393
0.03951
0.19130
-0.08260
0.19443
-0.10187
-0.03427
0.10772
0.01478
0.02045
-0.05325
0.08169
0.18692
-0.11882
0.11533
-0.02018
0.06595
-0.11070
-0.07503
-0.05219
-0.00030
-0.04689
-0.07143
0.00367
0.06251
-0.02657
-0.07076
-0.02440
-0.07257
0.00295
-0.12747
-0.05624
0.15410
-0.01319
-0.02015
0.05539
-0.04042
-0.17420
0.04957
-0.02443
-0.00348
0.10432
0.09421
0.01138
0.06879
0.07951
0.24059
0.00035
0.01263
0.03027
-0.04400
-0.11955
-0.06298
0.10596
-0.06284
0.01501
-0.13030
0.00762
-0.01485
-0.12884
-0.08538
-0.03142
-0.01071
0.04925
-0.02160
-0.06775
0.07477
-0.05384
0.01416
-0.03908
-0.03064
-0.08116
0.23901
-0.01001
-0.01430
0.09715
-0.01412
0.02033
-0.00806
0.15432
0.08457
0.14377
-0.02013
0.10537
-0.05848
0.31455
0.07455
0.04767
-0.07678
0.17135
0.04817
-0.11536
0.03200
0.14701
-0.07704
0.02296
-0.06062
0.10083
-0.10903
-0.09934
-0.04840
-0.01741
0.03149
0.06482
0.20459
-0.01200
0.21003
-0.00219
-0.04751
-0.01592
-0.03035
-0.12651
-0.07993
0.10385
-0.12794
-0.00835
0.01254
-0.01917
-0.05362
-0.16527
-0.10793
-0.04170
0.07129
-0.10747
0.11526
-0.01818
-0.00349
-0.01657
0.00994
-0.01443
-0.00729
-0.06323
0.00441
0.01633
0.14087
0.04467
0.03590
-0.15644
-0.04601
0.16139
-0.00042
-0.09612
-0.01947
0.02396
-0.01201
-0.06194
-0.12939
-0.19813
0.06924
0.30007
0.01218
-0.08996
-0.04897
-0.07501
-0.07758
-0.01252
-0.07019
-0.02381
-0.06634
-0.13926
-0.02082
-0.05112
-0.01486
0.05736
-0.23234
-0.12360
-0.02257
0.00895
0.01581
-0.14402
0.00007
-0.11308
-0.02370
0.04985
0.13013
-0.07313
-0.00841
0.01628
-0.00018
-0.02816
-0.02200
-0.02062
0.20241
0.00012
-0.01840
-0.10971
0.14516
0.08483
-0.03647
0.19457
-0.08088
-0.03528
-0.02651
0.26693
-0.04801
0.06942
0.21411
0.04328
-0.00508
-0.02460
0.17204
-0.20536
-0.08263
-0.04411
-0.08492
-0.10743
-0.01689
0.08438
0.18781
-0.06059
-0.07463
0.03081
-0.10629
-0.01807
-0.00028
0.10402
-0.00378
-0.02767
-0.05774
0.04535
-0.04446
-0.01927
-0.07454
0.10947
0.07544
0.18408
-0.09804
-0.07379
-0.02272
0.01649
0.10510
0.06473
-0.02735
-0.08918
0.17807
-0.02015
0.03036
-0.01806
0.03087
0.13135
0.07496
0.04647
-0.07633
-0.02320
0.01174
-0.00957
0.00016
-0.02236
0.02351
0.09258
-0.00920
-0.04781
-0.15051
-0.10344
0.02352
0.07592
-0.14255
0.04997
-0.07349
0.01600
0.01235
0.12242
0.22324
-0.08073
0.08566
-0.08509
0.00632
-0.01078
-0.11573
0.01096
-0.12133
0.05952
-0.01668
-0.11235
-0.02253
0.25686
0.26617
-0.11383
0.19441
-0.04615
-0.00763
-0.01135
0.25078
0.00435
-0.10974
-0.01896
-0.05190
0.00108
-0.06244
-0.02948
0.11304
0.00359
-0.10498
-0.06437
-0.04496
-0.00792
-0.06473
0.22708
0.23710
0.11998
-0.05423
-0.00280
-0.07936
0.02685
-0.02608
0.00164
0.03023
-0.10720
-0.22478
-0.04222
0.02024
-0.03438
-0.02068
0.08549
-0.01835
0.02945
-0.05483
-0.00270
0.18389
-0.02071
-0.01569
-0.00016
-0.04821
-0.00947
-0.01817
0.12055
0.09888
0.15710
-0.08318
0.04175
0.10997
-0.05637
-0.05690
0.12725
-0.09895
0.12887
0.21364
-0.03768
-0.06108
0.05974
-0.20019
-0.04299
0.06209
0.01685
-0.03184
-0.12780
0.02008
0.07267
-0.04360
-0.03264
-0.04528
-0.00022
0.01161
-0.10277
-0.12777
-0.01691
0.01999
-0.04518
0.06992
0.13270
-0.02014
-0.04423
-0.00322
-0.01545
-0.00083
-0.19401
-0.03771
0.01671
-0.03821
-0.00827
0.04391
-0.14630
-0.03872
-0.10670
-0.09830
-0.10930
0.07919
-0.09042
-0.07279
0.16390
-0.00705
-0.07661
-0.09235
0.03004
-0.00928
-0.01601
-0.26534
-0.03687
0.09785
-0.00151
0.01666
-0.00440
-0.03270
-0.09041
0.12437
-0.02242
0.01247
0.06709
0.11247
0.00264
-0.00468
0.21332
-0.03211
-0.00307
0.08650
-0.01730
-0.08462
0.10744
-0.00419
0.02481
-0.06971
0.27693
-0.00589
-0.05869
-0.05112
-0.08097
-0.06531
-0.04911
0.00966
-0.07339
0.10064
-0.10362
-0.00220
-0.06314
0.13698
-0.05031
0.05367
-0.00566
0.06993
-0.02496
0.09512
-0.02639
-0.03213
-0.00377
-0.00863
0.17955
-0.05958
-0.00816
-0.02051
0.10483
0.06368
-0.00245
0.01584
-0.00665
0.01813
0.23228
0.06340
0.11562
-0.05954
-0.01883
-0.07087
0.02338
-0.07518
-0.08553
-0.10555
0.07383
-0.04462
0.04541
0.04934
-0.03481
0.07539
0.00246
-0.08973
-0.06797
-0.04013
0.00275
0.09196
-0.02713
-0.04758
0.03320
0.00368
-0.15893
0.05143
0.04924
-0.00420
-0.00725
-0.04901
0.10881
0.05160
0.01906
-0.03425
-0.06524
0.05728
-0.02199
0.07150
0.00559
-0.08591
-0.02318
0.13018
-0.03297
-0.02246
-0.05235
-0.02253
0.14225
0.08859
0.01353
-0.04940
-0.02086
-0.18792
-0.09921
-0.03375
-0.00159
-0.04744
0.00380
-0.00817
-0.06418
-0.06462
-0.02047
-0.01374
0.07584
0.17366
0.03357
-0.01041
-0.00092
-0.00673
0.15776
0.10082
0.00305
0.19034
0.03778
0.08514
-0.01484
-0.02246
-0.26347
-0.15092
-0.17258
0.15871
-0.05144
-0.03233
0.03516
-0.04632
-0.11723
0.02467
-0.00183
-0.08763
-0.06735
0.13271
-0.08772
0.00894
-0.01871
-0.13596
-0.12504
-0.08566
0.01197
0.00611
0.02279
0.06345
-0.10430
-0.05022
-0.00736
0.27421
-0.00924
0.17661
-0.01100
0.21556
-0.02047
0.00576
0.01614
0.01263
-0.14598
0.01678
0.05337
0.00507
-0.17167
0.10037
0.08340
0.00732
0.20039
0.14067
0.00819
-0.05938
-0.04105
-0.08438
-0.09489
-0.14552
-0.06563
0.01923
0.02922
-0.00602
-0.03672
-0.11730
-0.16453
-0.08516
0.07188
-0.00204
-0.01332
0.02893
-0.13202
0.03695
0.05087
-0.12463
0.16460
-0.07977
-0.06312
-0.03873
-0.05670
0.13133
-0.00078
-0.14669
0.03619
-0.01595
-0.15549
-0.08187
-0.01345
-0.15090
-0.06560
-0.02245
0.00254
0.02178
0.09878
-0.04200
-0.10218
-0.14854
-0.05803
0.04417
0.03317
-0.10092
-0.09575
-0.04941
-0.03561
-0.02062
0.02066
0.02593
-0.04741
0.10312
0.01818
0.03561
-0.03897
0.00363
-0.04474
-0.01836
-0.01046
0.09436
0.01452
-0.00611
0.01893
0.02343
-0.19001
0.11015
-0.04916
0.13194
-0.10305
0.06237
0.00153
-0.00865
0.17136
-0.02157
-0.18067
-0.04932
0.11250
-0.03441
-0.01798
0.00976
-0.05591
0.03562
0.07067
-0.08640
-0.12933
0.11587
-0.09321
-0.17689
0.08024
0.00301
-0.00493
0.00207
-0.05530
0.00028
-0.02219
-0.04950
0.03060
-0.00416
-0.10216
-0.06523
0.01664
-0.00039
0.01907
-0.07851
0.12574
-0.02496
-0.13117
0.00685
0.05337
-0.04524
-0.01725
0.02706
0.04558
-0.06243
-0.10767
0.05565
-0.16018
-0.04847
0.10219
-0.14187
0.09002
0.08165
-0.06395
0.14198
-0.09250
-0.00655
-0.09370
-0.08354
-0.13695
-0.16522
0.01098
0.00350
0.11222
-0.01770
0.00472
-0.04739
-0.15151
0.00475
0.08629
-0.06775
-0.04421
-0.02922
-0.07013
0.12246
0.08854
-0.02251
-0.06339
-0.14022
-0.00610
-0.05844
-0.21995
-0.03200
-0.00923
-0.00054
-0.12437
-0.00051
0.02930
-0.03919
-0.15707
0.02098
0.01806
-0.05569
0.21902
-0.03023
-0.05791
0.04580
0.30236
-0.21009
-0.01802
0.15260
-0.15024
-0.03122
-0.01824
0.09757
-0.03203
-0.03972
0.08326
-0.12338
-0.17804
-0.22324
-0.09900
-0.05480
-0.03983
0.02808
-0.02279
0.01579
0.13363
-0.04802
-0.02075
0.06098
-0.00698
0.06038
0.05611
-0.03311
-0.07317
0.00834
0.00307
-0.00006
0.00118
0.05464
-0.03132
-0.12721
0.23015
-0.01176
0.03021
-0.07732
-0.00076
-0.03464
0.03440
0.13483
-0.17395
-0.01045
-0.00762
0.05961
-0.06796
0.02721
-0.08945
0.08314
-0.09785
-0.05962
-0.04887
0.14412
-0.06187
-0.00886
0.10848
-0.06994
-0.11897
-0.02809
-0.05610
-0.00554
0.08930
0.08104
0.00392
0.00438
-0.07624
-0.06183
-0.06492
-0.01999
-0.02434
-0.00641
-0.08272
0.00654
-0.04565
-0.12161
-0.07890
-0.03472
-0.10294
-0.11343
-0.11357
-0.04905
-0.07449
-0.12073
0.20710
-0.00023
0.05503
-0.00341
0.01010
0.06030
-0.02514
0.11627
0.09709
0.07865
-0.03698
-0.04012
-0.01140
-0.01917
0.11688
0.00364
-0.00186
-0.12482
0.17102
0.00692
-0.04607
0.00190
-0.00507
-0.06128
0.07799
-0.02078
-0.12478
-0.09677
-0.06337
0.03910
-0.00035
0.01410
0.01750
-0.09402
-0.02625
-0.05976
0.06192
-0.06293
-0.09543
-0.01055
-0.21580
-0.04581
0.00304
-0.01577
0.04755
0.23227
-0.07949
-0.17178
-0.04379
0.02109
-0.00625
-0.06177
-0.02920
0.01221
-0.01650
0.01290
-0.11676
-0.08741
-0.05762
0.03421
0.04085
0.05561
-0.06289
0.05304
-0.00674
0.00214
-0.01606
0.01296
0.00604
0.00342
0.01924
0.00969
-0.06481
-0.23882
0.09580
0.00150
-0.19007
-0.00230
-0.09963
-0.11963
-0.04569
-0.01561
0.09009
0.03443
-0.06058
-0.13462
0.02128
0.00189
0.07978
-0.01297
-0.05934
0.23700
-0.20654
-0.04194
-0.00773
0.01619
0.00086
0.20565
0.03871
-0.02037
-0.00260
-0.13853
0.03859
0.00274
-0.03215
-0.06935
-0.01245
-0.03510
-0.00407
-0.03189
-0.00783
-0.04282
0.03924
-0.00692
0.00701
-0.06638
0.00693
0.02326
-0.18363
-0.03637
0.07154
-0.11556
-0.12379
-0.04813
0.08774
-0.07756
-0.05003
-0.06950
0.09359
0.03176
-0.02565
0.01005
-0.01725
0.14573
-0.03941
0.05091
0.05476
0.02081
0.14982
0.01157
-0.01022
0.01638
-0.07186
-0.01564
-0.06124
-0.14712
-0.00855
-0.00888
-0.00211
0.01331
0.23790
-0.04649
0.15516
0.10271
0.11147
0.17041
0.05500
0.01632
-0.13697
0.15615
0.14721
0.02722
0.00285
-0.07811
0.14163
-0.01198
-0.29273
0.06847
0.00685
-0.03484
0.02380
-0.18396
0.00613
-0.03856
-0.09096
-0.22061
-0.10291
-0.01094
-0.11708
-0.03177
-0.01705
-0.02784
-0.09144
0.12058
-0.10392
0.03397
0.01069
-0.08448
-0.13157
0.00030
-0.18096
-0.02098
-0.07391
-0.14211
0.09230
0.13062
0.03412
-0.07057
0.22116
-0.03409
-0.00983
-0.08114
0.05190
0.09094
-0.16095
-0.08082
-0.08206
-0.08079
0.19349
0.21800
-0.07017
0.09830
-0.08999
-0.00881
0.25815
0.05617
-0.11101
-0.13213
0.03572
-0.01599
-0.12478
-0.17601
-0.00986
0.00305
-0.01901
0.06808
-0.02531
-0.08620
-0.19390
0.09264
0.15863
-0.12567
-0.04234
0.06974
-0.22393
0.13517
-0.07375
-0.05840
0.05368
0.10300
-0.02421
-0.01150
0.01198
0.05575
-0.05398
0.08352
-0.00894
-0.01902
-0.14262
0.04842
-0.12806
0.24197
0.10147
-0.07161
-0.03684
-0.05432
-0.02764
0.19517
0.12790
-0.00090
0.10766
0.06979
-0.16751
-0.04738
0.02262
-0.18689
0.04613
-0.03945
0.04738
0.01776
-0.11154
0.09122
0.00205
-0.02445
-0.07832
-0.05866
0.00763
0.00038
-0.01330
0.05578
0.01886
0.04705
0.01159
-0.07876
-0.05321
0.02139
0.02855
0.06599
-0.05933
0.00104
-0.09318
-0.05103
0.21887
0.10728
-0.02267
-0.06130
0.11338
-0.06648
0.08615
-0.07369
0.00047
-0.06575
-0.00882
-0.11023
0.00068
-0.06880
0.12506
-0.08952
-0.01458
-0.14217
-0.04675
-0.02088
-0.10474
