0.01442
-0.01141
0.02981
-0.05180
-0.03544
-0.00006
-0.04011
-0.01086
0.22939
0.09417
-0.19867
-0.06849
-0.02471
0.04467
0.02918
-0.17066
0.03729
-0.14114
0.64385
-0.18143
-0.00672
-0.09429
-0.04420
0.04403
-0.16810
0.00317
-0.00522
0.12230
0.09373
-0.17461
0.04552
-0.06740
-0.03855
-0.04397
0.00868
-0.07452
-0.02408
-0.03521
-0.06154
0.01603
0.15434
-0.05490
0.60048
-0.09369
-0.07109
-0.04240
0.16725
-0.12190
-0.04450
0.00847
-0.06518
0.35265
-0.14130
-0.10326
0.37523
-0.21710
-0.05720
-0.11986
-0.16345
-0.00544
-0.00455
-0.01249
-0.23634
-0.10937
-0.00384
-0.03287
-0.07867
-0.04671
-0.07907
-0.02897
0.23185
0.16403
0.05335
-0.00514
0.21735
-0.08471
-0.02168
-0.08283
-0.01538
0.30684
-0.06434
0.03040
-0.06166
-0.01180
-0.14391
-0.35618
0.02222
0.02207
-0.01017
-0.11977
0.06166
-0.02032
-0.06328
0.02003
0.04310
-0.08686
-0.06404
-0.04059
0.01100
-0.05605
0.03960
0.07654
-0.03725
-0.14043
-0.23758
-0.19585
-0.04465
-0.04608
-0.24779
0.12533
-0.04799
0.22772
-0.13001
0.05454
-0.18493
0.01930
-0.06556
0.25332
-0.12069
-0.13495
-0.06732
-0.14194
0.05776
-0.11614
0.09144
-0.05209
0.01044
-0.02487
0.00646
0.11093
-0.28677
-0.01228
-0.13541
-0.17884
0.10329
-0.02601
0.01573
-0.04417
-0.01097
-0.03912
-0.20121
-0.00375
-0.01149
-0.12797
0.29372
-0.06227
-0.07036
-0.04452
-0.04131
0.12018
0.03265
0.03568
-0.01929
-0.13260
0.12045
0.00801
-0.07007
-0.02812
-0.07169
-0.03390
0.11352
0.01488
-0.05961
-0.02224
-0.02113
-0.14578
-0.12140
-0.05527
-0.13214
-0.12602
-0.08453
0.01055
-0.06379
-0.02587
-0.10405
0.04283
0.10557
-0.05838
-0.05697
0.29904
-0.00287
-0.13391
-0.06330
0.00908
-0.00965
-0.00913
0.04732
-0.02349
0.07440
-0.04116
-0.03155
-0.09341
-0.02980
-0.13199
0.01574
-0.10467
-0.06220
-0.09058
-0.09412
0.00254
-0.03818
-0.05301
-0.30238
-0.02277
0.29086
0.08463
-0.00155
-0.03341
-0.29882
-0.17805
0.48001
-0.06081
0.02557
0.03836
0.02757
-0.10858
-0.10201
-0.20271
-0.07731
-0.05039
-0.07806
0.12090
0.13285
-0.06317
-0.20431
-0.02123
-0.08542
-0.09011
-0.01266
0.10942
-0.00597
-0.00647
-0.08059
0.00491
-0.15999
0.03897
-0.00969
-0.01229
-0.02937
0.06949
-0.07676
-0.03045
0.02784
0.03175
-0.14913
-0.03316
-0.06890
-0.00159
-0.02154
-0.12755
-0.18377
-0.00351
-0.12403
-0.04529
0.03668
-0.01325
-0.00452
0.04963
-0.03769
0.39687
-0.04211
0.20591
-0.02857
0.04069
0.07238
0.00377
-0.05044
-0.05376
-0.05701
0.00753
0.12022
0.09985
-0.04115
0.00626
-0.09120
0.15127
-0.04178
-0.06379
-0.31581
0.12202
-0.01707
-0.00623
-0.05280
0.07733
-0.12451
-0.02432
-0.11806
-0.07549
-0.00763
0.05094
0.08517
0.01933
-0.08454
-0.12922
-0.19296
-0.02798
-0.11509
-0.10668
-0.02940
-0.08293
0.12938
-0.04180
0.00370
-0.08002
-0.09046
-0.19342
-0.07911
-0.00380
0.32672
-0.11248
0.08507
-0.07625
-0.08516
-0.14881
-0.00579
0.17501
0.00929
-0.14646
0.04119
-0.03591
0.15847
-0.04595
-0.18873
0.11768
-0.07555
-0.12784
0.03036
-0.06573
0.17250
0.10875
-0.02943
-0.23024
-0.10809
0.02953
0.21249
-0.10000
0.00432
-0.08243
0.06084
-0.16072
0.36048
-0.06809
-0.09991
-0.13476
-0.04787
-0.05363
-0.06308
0.42341
0.58849
-0.12820
-0.04635
0.00188
0.03833
-0.00543
-0.26901
-0.27620
-0.00433
-0.00556
0.14309
0.19859
-0.14016
-0.02210
-0.07186
0.05363
-0.01761
-0.17285
-0.05607
-0.09234
-0.03992
-0.01716
-0.07441
-0.13614
-0.03773
-0.02021
-0.00342
-0.00674
-0.04423
-0.02517
-0.02024
-0.02007
-0.15683
-0.13106
0.08803
-0.01874
0.01457
-0.00444
-0.07243
-0.06130
0.01230
-0.09215
0.06448
-0.15963
-0.05909
-0.14578
-0.04573
-0.01215
-0.00899
-0.05202
-0.04877
-0.11659
-0.07589
0.00419
0.01546
-0.20428
-0.02630
-0.05012
-0.15174
-0.04216
0.40213
0.00722
-0.00753
0.04138
-0.04004
-0.03430
-0.11285
-0.02215
-0.02185
-0.02553
0.01237
-0.06239
-0.01426
-0.07962
-0.15499
-0.05586
-0.14523
-0.13211
-0.00155
-0.08036
-0.12445
0.06640
-0.06028
-0.24871
-0.11084
0.17043
0.01077
0.11729
-0.12014
0.02061
-0.02576
0.28056
-0.01116
-0.07392
-0.01118
-0.04417
-0.25253
0.00534
0.09752
-0.04741
0.10576
-0.13271
0.05066
0.12511
-0.16520
-0.01575
0.09010
-0.01451
-0.11315
-0.01110
-0.02004
-0.28727
0.00793
0.00397
-0.03675
-0.03219
-0.03987
-0.13204
0.05995
-0.01042
-0.10351
-0.07785
-0.10489
-0.09302
-0.08621
-0.02644
-0.13545
-0.10215
-0.07630
-0.02528
-0.08804
0.04720
0.00176
-0.10159
0.02396
-0.15072
-0.12648
-0.02407
-0.11742
0.00358
0.23970
-0.01657
-0.23505
0.03124
-0.04080
-0.16774
0.02120
-0.19041
-0.03975
-0.01546
0.00658
0.02024
0.00033
-0.03415
0.02564
-0.02328
-0.09686
0.14880
-0.30459
-0.21392
-0.14953
0.06792
-0.11046
-0.06893
