-0.02028
0.17651
-0.05712
-0.08431
0.07396
-0.03750
-0.05471
0.17927
-0.08068
0.32244
-0.03142
-0.10060
0.21260
-0.00786
-0.01548
-0.40049
-0.07898
0.00577
-0.03242
0.05922
-0.01590
-0.10013
-0.06441
-0.02733
-0.03251
0.14571
-0.18396
-0.14330
-0.06963
-0.04769
0.04307
-0.01612
-0.03786
0.06235
-0.00132
-0.00260
-0.00374
-0.11509
-0.00012
-0.06225
-0.00083
-0.02991
-0.10482
-0.05914
-0.03288
-0.00854
0.19605
-0.09345
0.07928
-0.04545
0.00493
0.04680
-0.11247
-0.00774
-0.08096
-0.09808
-0.05276
-0.09511
0.26905
0.24794
-0.06257
0.02502
-0.19600
-0.03551
0.11866
-0.15881
-0.05358
0.01728
-0.16584
-0.01565
-0.07458
0.01429
-0.04497
0.32625
-0.02909
-0.19656
0.14529
-0.11549
0.07604
0.10910
-0.00651
-0.11497
-0.03466
-0.09720
0.21694
0.10881
-0.00843
0.02328
-0.00426
0.43581
-0.13555
-0.18664
-0.01535
-0.18482
-0.07679
-0.03126
0.00457
0.21951
0.05342
0.00121
0.11677
0.10946
0.05402
-0.02227
0.00581
-0.24273
0.06304
-0.00465
-0.19527
0.23478
-0.03302
-0.03013
-0.03668
-0.08439
-0.01433
-0.17322
-0.04527
0.00010
-0.09461
0.13277
0.00972
-0.00129
0.04777
0.06763
0.06304
-0.07323
-0.01187
0.00656
-0.00143
-0.10744
-0.09640
-0.10128
-0.04160
0.22375
-0.08689
0.03122
0.02755
-0.03495
-0.23058
-0.02787
-0.09551
0.10211
-0.01508
0.00021
-0.08711
0.17160
-0.05320
-0.07000
-0.06781
0.00846
-0.02891
0.04968
-0.00308
0.12969
-0.00757
-0.00179
-0.00857
-0.07114
-0.07035
-0.01068
-0.02113
-0.08589
0.22624
-0.02372
0.02464
-0.00639
-0.08132
0.08045
-0.01973
-0.02860
-0.09337
0.00268
0.02465
-0.03666
-0.19545
-0.13004
-0.05511
0.01036
-0.20771
-0.01362
0.00422
-0.02445
-0.01549
-0.10079
-0.07999
0.00416
-0.00223
0.03267
-0.21893
-0.04057
0.06571
0.00350
0.26880
0.07110
0.13016
-0.02913
-0.04646
0.03617
-0.03370
-0.03661
0.00904
-0.00631
-0.00249
-0.00666
0.01899
-0.00001
-0.00474
-0.16100
-0.00999
-0.00278
0.16464
-0.11196
-0.01049
0.00928
-0.09570
0.00421
0.22774
-0.09450
-0.08403
-0.02359
-0.17822
-0.09121
-0.04807
-0.25213
0.06650
-0.00727
-0.08609
-0.02457
-0.01809
0.03160
0.13299
0.01988
0.33974
-0.14684
-0.02721
0.00200
-0.06477
0.29198
-0.00314
0.08143
-0.15723
0.02852
-0.07653
0.00829
-0.06201
0.30301
-0.01527
0.03569
-0.07834
-0.06639
0.03561
-0.01925
0.03179
0.00121
0.13734
0.29261
0.00310
0.28227
-0.01119
-0.01858
-0.06379
-0.03108
-0.10729
-0.04627
-0.00408
0.02677
-0.07847
0.01304
0.33126
0.06851
-0.15096
0.23735
-0.07770
-0.09362
-0.14948
-0.24360
0.13204
0.17196
-0.05906
-0.01833
-0.01528
-0.00562
-0.07725
-0.24659
-0.07032
0.31302
0.08852
-0.00381
0.09618
-0.02197
-0.09859
0.09277
-0.05929
-0.02864
-0.10588
0.11864
-0.10245
-0.06111
-0.02526
-0.02083
-0.01510
-0.24271
0.12495
-0.03243
0.03358
0.00038
-0.10897
-0.09449
-0.30799
-0.09227
0.19906
-0.01470
-0.15792
-0.00266
-0.04220
-0.02658
-0.02168
-0.25342
-0.07281
-0.00306
0.23389
0.08707
-0.00681
-0.07551
-0.01828
-0.04179
-0.04837
-0.21722
-0.01220
-0.04518
0.37232
0.15331
-0.02457
-0.02235
-0.12723
-0.04457
-0.03855
-0.02746
-0.08132
-0.14601
-0.02554
-0.02116
-0.01794
0.10398
-0.07818
0.14420
0.01573
-0.11259
0.06764
-0.29284
0.03409
0.03991
-0.05393
-0.02187
-0.02982
-0.04047
0.04996
-0.01169
-0.02267
-0.05921
0.28873
-0.27667
0.16794
0.02538
-0.00137
-0.21475
-0.01532
0.12460
-0.09043
-0.06030
0.02290
-0.17760
-0.04936
0.15551
0.06212
-0.17402
0.02909
-0.29385
-0.17481
0.03583
-0.06640
-0.04719
0.01095
-0.02249
-0.11539
-0.00792
-0.20628
-0.14398
0.02104
0.11124
-0.08435
-0.24276
0.00634
0.06142
0.41846
-0.04398
-0.00038
-0.03366
-0.02540
-0.00976
-0.19327
0.13925
-0.26291
0.12186
0.38929
-0.03957
0.01302
-0.08346
0.02517
0.09991
-0.08955
0.14014
-0.04222
-0.13082
-0.00386
0.31306
-0.09294
0.63635
-0.20040
-0.02001
0.10840
-0.02243
0.00231
0.08999
0.09242
0.28298
-0.14882
-0.02014
-0.27431
-0.13897
0.11530
-0.09627
-0.02827
0.01161
-0.22818
0.13603
0.03137
-0.01735
0.08526
0.04084
0.10824
-0.20254
-0.11217
-0.07148
-0.03663
-0.01016
0.26472
0.03988
0.00305
0.14320
0.03958
-0.31782
-0.20247
-0.04844
0.08157
-0.01166
-0.05201
-0.05666
0.07473
0.03576
0.03264
-0.07941
-0.00819
-0.05613
0.14944
-0.02732
-0.10367
-0.02260
0.15703
-0.01355
-0.03310
0.19111
-0.07809
-0.30597
-0.03962
0.01382
-0.01387
-0.05250
-0.03816
-0.35537
0.07331
-0.08119
-0.02122
0.01928
-0.15099
-0.09452
-0.10982
0.02526
-0.13182
0.16415
0.29100
-0.03438
-0.18231
-0.07791
0.13843
0.15072
0.00910
-0.07654
-0.00012
0.13885
0.00403
0.06140
0.08725
-0.07325
-0.02817
-0.13420
0.00210
-0.01025
-0.04399
-0.04195
-0.03671
0.06059
